digraph Tree {
node [shape=box, style="rounded", color="black", fontname=helvetica] ;
edge [fontname=helvetica] ;
0 [label="grade <= 4.5\nmse = 0.0\nsamples = 496951\nvalue = 0.0"] ;
1 [label="sub_grade <= 23.5\nmse = 0.0\nsamples = 464764\nvalue = 0.0"] ;
0 -> 1 [labeldistance=2.5, labelangle=45, headlabel="True"] ;
2 [label="sub_grade <= 13.5\nmse = 0.0\nsamples = 178508\nvalue = 0.0"] ;
1 -> 2 ;
3 [label="annual_inc <= 22505.4\nmse = 0.0\nsamples = 51357\nvalue = 0.0"] ;
2 -> 3 ;
4 [label="annual_inc <= 22438.5\nmse = 0.0\nsamples = 684\nvalue = 0.0"] ;
3 -> 4 ;
5 [label="annual_inc <= 19990.0\nmse = 0.0\nsamples = 671\nvalue = 0.0"] ;
4 -> 5 ;
6 [label="mse = 0.0\nsamples = 412\nvalue = 0.0"] ;
5 -> 6 ;
7 [label="loan_amnt <= 5550.0\nmse = 0.0\nsamples = 259\nvalue = 0.0"] ;
5 -> 7 ;
8 [label="mse = 0.0\nsamples = 137\nvalue = 0.0"] ;
7 -> 8 ;
9 [label="installment <= 170.4\nmse = 0.0\nsamples = 122\nvalue = 0.0"] ;
7 -> 9 ;
10 [label="mse = 0.0\nsamples = 1\nvalue = 1.0"] ;
9 -> 10 ;
11 [label="installment <= 185.3\nmse = 0.0\nsamples = 121\nvalue = 0.0"] ;
9 -> 11 ;
12 [label="installment <= 184.8\nmse = 0.1\nsamples = 16\nvalue = 0.1"] ;
11 -> 12 ;
13 [label="mse = 0.0\nsamples = 15\nvalue = 0.0"] ;
12 -> 13 ;
14 [label="mse = 0.0\nsamples = 1\nvalue = 1.0"] ;
12 -> 14 ;
15 [label="mse = 0.0\nsamples = 105\nvalue = 0.0"] ;
11 -> 15 ;
16 [label="loan_amnt <= 7500.0\nmse = 0.1\nsamples = 13\nvalue = 0.1"] ;
4 -> 16 ;
17 [label="mse = 0.0\nsamples = 9\nvalue = 0.0"] ;
16 -> 17 ;
18 [label="installment <= 242.3\nmse = 0.2\nsamples = 4\nvalue = 0.3"] ;
16 -> 18 ;
19 [label="mse = 0.0\nsamples = 1\nvalue = 1.0"] ;
18 -> 19 ;
20 [label="mse = 0.0\nsamples = 3\nvalue = 0.0"] ;
18 -> 20 ;
21 [label="installment <= 361.5\nmse = 0.0\nsamples = 50673\nvalue = 0.0"] ;
3 -> 21 ;
22 [label="installment <= 309.9\nmse = 0.0\nsamples = 26278\nvalue = 0.0"] ;
21 -> 22 ;
23 [label="installment <= 183.8\nmse = 0.0\nsamples = 23557\nvalue = 0.0"] ;
22 -> 23 ;
24 [label="annual_inc <= 53020.0\nmse = 0.0\nsamples = 9253\nvalue = 0.0"] ;
23 -> 24 ;
25 [label="annual_inc <= 50350.0\nmse = 0.0\nsamples = 3832\nvalue = 0.0"] ;
24 -> 25 ;
26 [label="annual_inc <= 41019.8\nmse = 0.0\nsamples = 3510\nvalue = 0.0"] ;
25 -> 26 ;
27 [label="mse = 0.0\nsamples = 1975\nvalue = 0.0"] ;
26 -> 27 ;
28 [label="annual_inc <= 41107.0\nmse = 0.0\nsamples = 1535\nvalue = 0.0"] ;
26 -> 28 ;
29 [label="mse = 0.0\nsamples = 1\nvalue = 1.0"] ;
28 -> 29 ;
30 [label="sub_grade <= 11.5\nmse = 0.0\nsamples = 1534\nvalue = 0.0"] ;
28 -> 30 ;
31 [label="installment <= 126.9\nmse = 0.0\nsamples = 464\nvalue = 0.0"] ;
30 -> 31 ;
32 [label="installment <= 125.0\nmse = 0.0\nsamples = 174\nvalue = 0.0"] ;
31 -> 32 ;
33 [label="mse = 0.0\nsamples = 169\nvalue = 0.0"] ;
32 -> 33 ;
34 [label="annual_inc <= 48700.0\nmse = 0.1\nsamples = 5\nvalue = 0.1"] ;
32 -> 34 ;
35 [label="mse = 0.0\nsamples = 1\nvalue = 1.0"] ;
34 -> 35 ;
36 [label="mse = 0.0\nsamples = 4\nvalue = 0.0"] ;
34 -> 36 ;
37 [label="mse = 0.0\nsamples = 290\nvalue = 0.0"] ;
31 -> 37 ;
38 [label="mse = 0.0\nsamples = 1070\nvalue = 0.0"] ;
30 -> 38 ;
39 [label="annual_inc <= 50420.0\nmse = 0.0\nsamples = 322\nvalue = 0.0"] ;
25 -> 39 ;
40 [label="funded_amnt <= 4050.0\nmse = 0.2\nsamples = 2\nvalue = 0.7"] ;
39 -> 40 ;
41 [label="mse = 0.0\nsamples = 1\nvalue = 1.0"] ;
40 -> 41 ;
42 [label="mse = 0.0\nsamples = 1\nvalue = 0.0"] ;
40 -> 42 ;
43 [label="sub_grade <= 12.5\nmse = 0.0\nsamples = 320\nvalue = 0.0"] ;
39 -> 43 ;
44 [label="mse = 0.0\nsamples = 202\nvalue = 0.0"] ;
43 -> 44 ;
45 [label="loan_amnt <= 5200.0\nmse = 0.0\nsamples = 118\nvalue = 0.0"] ;
43 -> 45 ;
46 [label="installment <= 117.6\nmse = 0.0\nsamples = 107\nvalue = 0.0"] ;
45 -> 46 ;
47 [label="funded_amnt <= 3550.0\nmse = 0.0\nsamples = 43\nvalue = 0.0"] ;
46 -> 47 ;
48 [label="mse = 0.0\nsamples = 42\nvalue = 0.0"] ;
47 -> 48 ;
49 [label="mse = 0.0\nsamples = 1\nvalue = 1.0"] ;
47 -> 49 ;
50 [label="mse = 0.0\nsamples = 64\nvalue = 0.0"] ;
46 -> 50 ;
51 [label="installment <= 168.7\nmse = 0.1\nsamples = 11\nvalue = 0.1"] ;
45 -> 51 ;
52 [label="mse = 0.0\nsamples = 1\nvalue = 1.0"] ;
51 -> 52 ;
53 [label="mse = 0.0\nsamples = 10\nvalue = 0.0"] ;
51 -> 53 ;
54 [label="installment <= 90.7\nmse = 0.0\nsamples = 5421\nvalue = 0.0"] ;
24 -> 54 ;
55 [label="installment <= 90.3\nmse = 0.0\nsamples = 919\nvalue = 0.0"] ;
54 -> 55 ;
56 [label="mse = 0.0\nsamples = 794\nvalue = 0.0"] ;
55 -> 56 ;
57 [label="annual_inc <= 89500.0\nmse = 0.0\nsamples = 125\nvalue = 0.0"] ;
55 -> 57 ;
58 [label="mse = 0.0\nsamples = 74\nvalue = 0.0"] ;
57 -> 58 ;
59 [label="annual_inc <= 91000.0\nmse = 0.0\nsamples = 51\nvalue = 0.0"] ;
57 -> 59 ;
60 [label="mse = 0.1\nsamples = 8\nvalue = 0.1"] ;
59 -> 60 ;
61 [label="mse = 0.0\nsamples = 43\nvalue = 0.0"] ;
59 -> 61 ;
62 [label="mse = 0.0\nsamples = 4502\nvalue = 0.0"] ;
54 -> 62 ;
63 [label="installment <= 216.1\nmse = 0.0\nsamples = 14304\nvalue = 0.0"] ;
23 -> 63 ;
64 [label="installment <= 215.8\nmse = 0.0\nsamples = 2977\nvalue = 0.0"] ;
63 -> 64 ;
65 [label="installment <= 184.1\nmse = 0.0\nsamples = 2948\nvalue = 0.0"] ;
64 -> 65 ;
66 [label="annual_inc <= 29500.0\nmse = 0.0\nsamples = 48\nvalue = 0.0"] ;
65 -> 66 ;
67 [label="annual_inc <= 27000.0\nmse = 0.2\nsamples = 3\nvalue = 0.3"] ;
66 -> 67 ;
68 [label="mse = 0.0\nsamples = 1\nvalue = 0.0"] ;
67 -> 68 ;
69 [label="mse = 0.2\nsamples = 2\nvalue = 0.5"] ;
67 -> 69 ;
70 [label="mse = 0.0\nsamples = 45\nvalue = 0.0"] ;
66 -> 70 ;
71 [label="annual_inc <= 62450.0\nmse = 0.0\nsamples = 2900\nvalue = 0.0"] ;
65 -> 71 ;
72 [label="sub_grade <= 11.5\nmse = 0.0\nsamples = 1437\nvalue = 0.0"] ;
71 -> 72 ;
73 [label="funded_amnt <= 6275.0\nmse = 0.0\nsamples = 341\nvalue = 0.0"] ;
72 -> 73 ;
74 [label="loan_amnt <= 6225.0\nmse = 0.1\nsamples = 7\nvalue = 0.1"] ;
73 -> 74 ;
75 [label="mse = 0.0\nsamples = 5\nvalue = 0.0"] ;
74 -> 75 ;
76 [label="annual_inc <= 33675.0\nmse = 0.2\nsamples = 2\nvalue = 0.2"] ;
74 -> 76 ;
77 [label="mse = 0.0\nsamples = 1\nvalue = 0.0"] ;
76 -> 77 ;
78 [label="mse = 0.0\nsamples = 1\nvalue = 1.0"] ;
76 -> 78 ;
79 [label="mse = 0.0\nsamples = 334\nvalue = 0.0"] ;
73 -> 79 ;
80 [label="mse = 0.0\nsamples = 1096\nvalue = 0.0"] ;
72 -> 80 ;
81 [label="annual_inc <= 62750.0\nmse = 0.0\nsamples = 1463\nvalue = 0.0"] ;
71 -> 81 ;
82 [label="sub_grade <= 12.0\nmse = 0.2\nsamples = 3\nvalue = 0.4"] ;
81 -> 82 ;
83 [label="mse = 0.0\nsamples = 1\nvalue = 1.0"] ;
82 -> 83 ;
84 [label="mse = 0.0\nsamples = 2\nvalue = 0.0"] ;
82 -> 84 ;
85 [label="installment <= 185.3\nmse = 0.0\nsamples = 1460\nvalue = 0.0"] ;
81 -> 85 ;
86 [label="annual_inc <= 67250.0\nmse = 0.0\nsamples = 278\nvalue = 0.0"] ;
85 -> 86 ;
87 [label="annual_inc <= 66500.0\nmse = 0.0\nsamples = 40\nvalue = 0.0"] ;
86 -> 87 ;
88 [label="mse = 0.0\nsamples = 37\nvalue = 0.0"] ;
87 -> 88 ;
89 [label="installment <= 185.0\nmse = 0.2\nsamples = 3\nvalue = 0.5"] ;
87 -> 89 ;
90 [label="mse = 0.0\nsamples = 2\nvalue = 0.0"] ;
89 -> 90 ;
91 [label="mse = 0.0\nsamples = 1\nvalue = 1.0"] ;
89 -> 91 ;
92 [label="installment <= 185.2\nmse = 0.0\nsamples = 238\nvalue = 0.0"] ;
86 -> 92 ;
93 [label="mse = 0.0\nsamples = 156\nvalue = 0.0"] ;
92 -> 93 ;
94 [label="annual_inc <= 87734.0\nmse = 0.0\nsamples = 82\nvalue = 0.0"] ;
92 -> 94 ;
95 [label="mse = 0.0\nsamples = 38\nvalue = 0.0"] ;
94 -> 95 ;
96 [label="annual_inc <= 89500.0\nmse = 0.0\nsamples = 44\nvalue = 0.0"] ;
94 -> 96 ;
97 [label="mse = 0.0\nsamples = 1\nvalue = 1.0"] ;
96 -> 97 ;
98 [label="mse = 0.0\nsamples = 43\nvalue = 0.0"] ;
96 -> 98 ;
99 [label="annual_inc <= 79769.5\nmse = 0.0\nsamples = 1182\nvalue = 0.0"] ;
85 -> 99 ;
100 [label="mse = 0.0\nsamples = 447\nvalue = 0.0"] ;
99 -> 100 ;
101 [label="annual_inc <= 80100.0\nmse = 0.0\nsamples = 735\nvalue = 0.0"] ;
99 -> 101 ;
102 [label="installment <= 210.8\nmse = 0.0\nsamples = 60\nvalue = 0.0"] ;
101 -> 102 ;
103 [label="mse = 0.0\nsamples = 43\nvalue = 0.0"] ;
102 -> 103 ;
104 [label="installment <= 212.2\nmse = 0.1\nsamples = 17\nvalue = 0.1"] ;
102 -> 104 ;
105 [label="mse = 0.1\nsamples = 9\nvalue = 0.1"] ;
104 -> 105 ;
106 [label="mse = 0.0\nsamples = 8\nvalue = 0.0"] ;
104 -> 106 ;
107 [label="loan_amnt <= 6012.5\nmse = 0.0\nsamples = 675\nvalue = 0.0"] ;
101 -> 107 ;
108 [label="installment <= 186.4\nmse = 0.0\nsamples = 149\nvalue = 0.0"] ;
107 -> 108 ;
109 [label="mse = 0.0\nsamples = 126\nvalue = 0.0"] ;
108 -> 109 ;
110 [label="annual_inc <= 97500.0\nmse = 0.0\nsamples = 23\nvalue = 0.0"] ;
108 -> 110 ;
111 [label="annual_inc <= 92500.0\nmse = 0.1\nsamples = 3\nvalue = 0.1"] ;
110 -> 111 ;
112 [label="mse = 0.0\nsamples = 2\nvalue = 0.0"] ;
111 -> 112 ;
113 [label="mse = 0.0\nsamples = 1\nvalue = 1.0"] ;
111 -> 113 ;
114 [label="mse = 0.0\nsamples = 20\nvalue = 0.0"] ;
110 -> 114 ;
115 [label="mse = 0.0\nsamples = 526\nvalue = 0.0"] ;
107 -> 115 ;
116 [label="annual_inc <= 78000.0\nmse = 0.1\nsamples = 29\nvalue = 0.1"] ;
64 -> 116 ;
117 [label="mse = 0.0\nsamples = 20\nvalue = 0.0"] ;
116 -> 117 ;
118 [label="annual_inc <= 83000.0\nmse = 0.2\nsamples = 9\nvalue = 0.2"] ;
116 -> 118 ;
119 [label="mse = 0.2\nsamples = 2\nvalue = 0.6"] ;
118 -> 119 ;
120 [label="mse = 0.0\nsamples = 7\nvalue = 0.0"] ;
118 -> 120 ;
121 [label="installment <= 247.0\nmse = 0.0\nsamples = 11327\nvalue = 0.0"] ;
63 -> 121 ;
122 [label="mse = 0.0\nsamples = 2949\nvalue = 0.0"] ;
121 -> 122 ;
123 [label="installment <= 247.5\nmse = 0.0\nsamples = 8378\nvalue = 0.0"] ;
121 -> 123 ;
124 [label="annual_inc <= 46375.0\nmse = 0.0\nsamples = 375\nvalue = 0.0"] ;
123 -> 124 ;
125 [label="annual_inc <= 45500.0\nmse = 0.0\nsamples = 55\nvalue = 0.0"] ;
124 -> 125 ;
126 [label="annual_inc <= 41800.0\nmse = 0.0\nsamples = 53\nvalue = 0.0"] ;
125 -> 126 ;
127 [label="mse = 0.0\nsamples = 34\nvalue = 0.0"] ;
126 -> 127 ;
128 [label="annual_inc <= 42014.5\nmse = 0.0\nsamples = 19\nvalue = 0.0"] ;
126 -> 128 ;
129 [label="mse = 0.1\nsamples = 5\nvalue = 0.1"] ;
128 -> 129 ;
130 [label="mse = 0.0\nsamples = 14\nvalue = 0.0"] ;
128 -> 130 ;
131 [label="installment <= 247.1\nmse = 0.2\nsamples = 2\nvalue = 0.7"] ;
125 -> 131 ;
132 [label="mse = 0.0\nsamples = 1\nvalue = 0.0"] ;
131 -> 132 ;
133 [label="mse = 0.0\nsamples = 1\nvalue = 1.0"] ;
131 -> 133 ;
134 [label="mse = 0.0\nsamples = 320\nvalue = 0.0"] ;
124 -> 134 ;
135 [label="annual_inc <= 96750.0\nmse = 0.0\nsamples = 8003\nvalue = 0.0"] ;
123 -> 135 ;
136 [label="funded_amnt <= 9612.5\nmse = 0.0\nsamples = 6049\nvalue = 0.0"] ;
135 -> 136 ;
137 [label="installment <= 296.3\nmse = 0.0\nsamples = 2180\nvalue = 0.0"] ;
136 -> 137 ;
138 [label="annual_inc <= 40300.0\nmse = 0.0\nsamples = 2039\nvalue = 0.0"] ;
137 -> 138 ;
139 [label="installment <= 278.9\nmse = 0.0\nsamples = 272\nvalue = 0.0"] ;
138 -> 139 ;
140 [label="mse = 0.0\nsamples = 223\nvalue = 0.0"] ;
139 -> 140 ;
141 [label="installment <= 279.5\nmse = 0.0\nsamples = 49\nvalue = 0.0"] ;
139 -> 141 ;
142 [label="annual_inc <= 38750.0\nmse = 0.2\nsamples = 2\nvalue = 0.5"] ;
141 -> 142 ;
143 [label="mse = 0.0\nsamples = 1\nvalue = 0.0"] ;
142 -> 143 ;
144 [label="mse = 0.0\nsamples = 1\nvalue = 1.0"] ;
142 -> 144 ;
145 [label="mse = 0.0\nsamples = 47\nvalue = 0.0"] ;
141 -> 145 ;
146 [label="mse = 0.0\nsamples = 1767\nvalue = 0.0"] ;
138 -> 146 ;
147 [label="installment <= 296.6\nmse = 0.0\nsamples = 141\nvalue = 0.0"] ;
137 -> 147 ;
148 [label="annual_inc <= 61000.0\nmse = 0.0\nsamples = 40\nvalue = 0.0"] ;
147 -> 148 ;
149 [label="annual_inc <= 56500.0\nmse = 0.1\nsamples = 12\nvalue = 0.1"] ;
148 -> 149 ;
150 [label="mse = 0.0\nsamples = 8\nvalue = 0.0"] ;
149 -> 150 ;
151 [label="mse = 0.2\nsamples = 4\nvalue = 0.2"] ;
149 -> 151 ;
152 [label="mse = 0.0\nsamples = 28\nvalue = 0.0"] ;
148 -> 152 ;
153 [label="mse = 0.0\nsamples = 101\nvalue = 0.0"] ;
147 -> 153 ;
154 [label="installment <= 308.4\nmse = 0.0\nsamples = 3869\nvalue = 0.0"] ;
136 -> 154 ;
155 [label="mse = 0.0\nsamples = 2956\nvalue = 0.0"] ;
154 -> 155 ;
156 [label="installment <= 308.7\nmse = 0.0\nsamples = 913\nvalue = 0.0"] ;
154 -> 156 ;
157 [label="annual_inc <= 74500.0\nmse = 0.0\nsamples = 76\nvalue = 0.0"] ;
156 -> 157 ;
158 [label="mse = 0.0\nsamples = 56\nvalue = 0.0"] ;
157 -> 158 ;
159 [label="annual_inc <= 75150.0\nmse = 0.0\nsamples = 20\nvalue = 0.0"] ;
157 -> 159 ;
160 [label="mse = 0.2\nsamples = 4\nvalue = 0.2"] ;
159 -> 160 ;
161 [label="mse = 0.0\nsamples = 16\nvalue = 0.0"] ;
159 -> 161 ;
162 [label="mse = 0.0\nsamples = 837\nvalue = 0.0"] ;
156 -> 162 ;
163 [label="annual_inc <= 97068.0\nmse = 0.0\nsamples = 1954\nvalue = 0.0"] ;
135 -> 163 ;
164 [label="funded_amnt <= 8700.0\nmse = 0.0\nsamples = 21\nvalue = 0.0"] ;
163 -> 164 ;
165 [label="loan_amnt <= 8200.0\nmse = 0.2\nsamples = 2\nvalue = 0.5"] ;
164 -> 165 ;
166 [label="mse = 0.0\nsamples = 1\nvalue = 0.0"] ;
165 -> 166 ;
167 [label="mse = 0.0\nsamples = 1\nvalue = 1.0"] ;
165 -> 167 ;
168 [label="mse = 0.0\nsamples = 19\nvalue = 0.0"] ;
164 -> 168 ;
169 [label="loan_amnt <= 10150.0\nmse = 0.0\nsamples = 1933\nvalue = 0.0"] ;
163 -> 169 ;
170 [label="annual_inc <= 100077.0\nmse = 0.0\nsamples = 1905\nvalue = 0.0"] ;
169 -> 170 ;
171 [label="installment <= 278.2\nmse = 0.0\nsamples = 281\nvalue = 0.0"] ;
170 -> 171 ;
172 [label="installment <= 278.0\nmse = 0.0\nsamples = 54\nvalue = 0.0"] ;
171 -> 172 ;
173 [label="mse = 0.0\nsamples = 53\nvalue = 0.0"] ;
172 -> 173 ;
174 [label="mse = 0.0\nsamples = 1\nvalue = 1.0"] ;
172 -> 174 ;
175 [label="sub_grade <= 11.5\nmse = 0.0\nsamples = 227\nvalue = 0.0"] ;
171 -> 175 ;
176 [label="installment <= 301.1\nmse = 0.0\nsamples = 110\nvalue = 0.0"] ;
175 -> 176 ;
177 [label="mse = 0.0\nsamples = 34\nvalue = 0.0"] ;
176 -> 177 ;
178 [label="annual_inc <= 99470.0\nmse = 0.0\nsamples = 76\nvalue = 0.0"] ;
176 -> 178 ;
179 [label="mse = 0.0\nsamples = 12\nvalue = 0.0"] ;
178 -> 179 ;
180 [label="installment <= 302.7\nmse = 0.0\nsamples = 64\nvalue = 0.0"] ;
178 -> 180 ;
181 [label="mse = 0.0\nsamples = 63\nvalue = 0.0"] ;
180 -> 181 ;
182 [label="mse = 0.0\nsamples = 1\nvalue = 0.0"] ;
180 -> 182 ;
183 [label="mse = 0.0\nsamples = 117\nvalue = 0.0"] ;
175 -> 183 ;
184 [label="installment <= 297.4\nmse = 0.0\nsamples = 1624\nvalue = 0.0"] ;
170 -> 184 ;
185 [label="installment <= 297.0\nmse = 0.0\nsamples = 570\nvalue = 0.0"] ;
184 -> 185 ;
186 [label="annual_inc <= 154700.0\nmse = 0.0\nsamples = 556\nvalue = 0.0"] ;
185 -> 186 ;
187 [label="mse = 0.0\nsamples = 424\nvalue = 0.0"] ;
186 -> 187 ;
188 [label="annual_inc <= 155500.0\nmse = 0.0\nsamples = 132\nvalue = 0.0"] ;
186 -> 188 ;
189 [label="installment <= 280.4\nmse = 0.2\nsamples = 4\nvalue = 0.2"] ;
188 -> 189 ;
190 [label="mse = 0.0\nsamples = 2\nvalue = 0.0"] ;
189 -> 190 ;
191 [label="funded_amnt <= 9400.0\nmse = 0.2\nsamples = 2\nvalue = 0.5"] ;
189 -> 191 ;
192 [label="mse = 0.0\nsamples = 1\nvalue = 1.0"] ;
191 -> 192 ;
193 [label="mse = 0.0\nsamples = 1\nvalue = 0.0"] ;
191 -> 193 ;
194 [label="mse = 0.0\nsamples = 128\nvalue = 0.0"] ;
188 -> 194 ;
195 [label="annual_inc <= 114500.0\nmse = 0.0\nsamples = 14\nvalue = 0.0"] ;
185 -> 195 ;
196 [label="annual_inc <= 111704.0\nmse = 0.1\nsamples = 4\nvalue = 0.2"] ;
195 -> 196 ;
197 [label="mse = 0.0\nsamples = 3\nvalue = 0.0"] ;
196 -> 197 ;
198 [label="mse = 0.0\nsamples = 1\nvalue = 1.0"] ;
196 -> 198 ;
199 [label="mse = 0.0\nsamples = 10\nvalue = 0.0"] ;
195 -> 199 ;
200 [label="mse = 0.0\nsamples = 1054\nvalue = 0.0"] ;
184 -> 200 ;
201 [label="funded_amnt <= 10212.5\nmse = 0.0\nsamples = 28\nvalue = 0.0"] ;
169 -> 201 ;
202 [label="annual_inc <= 147500.0\nmse = 0.1\nsamples = 6\nvalue = 0.1"] ;
201 -> 202 ;
203 [label="mse = 0.0\nsamples = 5\nvalue = 0.0"] ;
202 -> 203 ;
204 [label="mse = 0.0\nsamples = 1\nvalue = 1.0"] ;
202 -> 204 ;
205 [label="mse = 0.0\nsamples = 22\nvalue = 0.0"] ;
201 -> 205 ;
206 [label="annual_inc <= 26300.0\nmse = 0.0\nsamples = 2721\nvalue = 0.0"] ;
22 -> 206 ;
207 [label="installment <= 326.7\nmse = 0.0\nsamples = 16\nvalue = 0.0"] ;
206 -> 207 ;
208 [label="installment <= 317.6\nmse = 0.2\nsamples = 2\nvalue = 0.3"] ;
207 -> 208 ;
209 [label="mse = 0.0\nsamples = 1\nvalue = 0.0"] ;
208 -> 209 ;
210 [label="mse = 0.0\nsamples = 1\nvalue = 1.0"] ;
208 -> 210 ;
211 [label="mse = 0.0\nsamples = 14\nvalue = 0.0"] ;
207 -> 211 ;
212 [label="annual_inc <= 65950.0\nmse = 0.0\nsamples = 2705\nvalue = 0.0"] ;
206 -> 212 ;
213 [label="annual_inc <= 50999.8\nmse = 0.0\nsamples = 988\nvalue = 0.0"] ;
212 -> 213 ;
214 [label="annual_inc <= 50899.8\nmse = 0.0\nsamples = 420\nvalue = 0.0"] ;
213 -> 214 ;
215 [label="mse = 0.0\nsamples = 419\nvalue = 0.0"] ;
214 -> 215 ;
216 [label="mse = 0.0\nsamples = 1\nvalue = 1.0"] ;
214 -> 216 ;
217 [label="mse = 0.0\nsamples = 568\nvalue = 0.0"] ;
213 -> 217 ;
218 [label="annual_inc <= 66180.5\nmse = 0.0\nsamples = 1717\nvalue = 0.0"] ;
212 -> 218 ;
219 [label="installment <= 310.7\nmse = 0.1\nsamples = 11\nvalue = 0.1"] ;
218 -> 219 ;
220 [label="mse = 0.0\nsamples = 1\nvalue = 1.0"] ;
219 -> 220 ;
221 [label="mse = 0.0\nsamples = 10\nvalue = 0.0"] ;
219 -> 221 ;
222 [label="sub_grade <= 11.5\nmse = 0.0\nsamples = 1706\nvalue = 0.0"] ;
218 -> 222 ;
223 [label="annual_inc <= 80170.0\nmse = 0.0\nsamples = 1112\nvalue = 0.0"] ;
222 -> 223 ;
224 [label="annual_inc <= 79935.0\nmse = 0.0\nsamples = 297\nvalue = 0.0"] ;
223 -> 224 ;
225 [label="mse = 0.0\nsamples = 235\nvalue = 0.0"] ;
224 -> 225 ;
226 [label="installment <= 361.4\nmse = 0.0\nsamples = 62\nvalue = 0.0"] ;
224 -> 226 ;
227 [label="mse = 0.0\nsamples = 29\nvalue = 0.0"] ;
226 -> 227 ;
228 [label="mse = 0.1\nsamples = 33\nvalue = 0.1"] ;
226 -> 228 ;
229 [label="mse = 0.0\nsamples = 815\nvalue = 0.0"] ;
223 -> 229 ;
230 [label="annual_inc <= 154700.0\nmse = 0.0\nsamples = 594\nvalue = 0.0"] ;
222 -> 230 ;
231 [label="installment <= 321.9\nmse = 0.0\nsamples = 548\nvalue = 0.0"] ;
230 -> 231 ;
232 [label="installment <= 321.6\nmse = 0.0\nsamples = 189\nvalue = 0.0"] ;
231 -> 232 ;
233 [label="annual_inc <= 70504.0\nmse = 0.0\nsamples = 187\nvalue = 0.0"] ;
232 -> 233 ;
234 [label="annual_inc <= 70004.0\nmse = 0.0\nsamples = 24\nvalue = 0.0"] ;
233 -> 234 ;
235 [label="mse = 0.0\nsamples = 23\nvalue = 0.0"] ;
234 -> 235 ;
236 [label="mse = 0.0\nsamples = 1\nvalue = 1.0"] ;
234 -> 236 ;
237 [label="installment <= 311.4\nmse = 0.0\nsamples = 163\nvalue = 0.0"] ;
233 -> 237 ;
238 [label="mse = 0.0\nsamples = 99\nvalue = 0.0"] ;
237 -> 238 ;
239 [label="annual_inc <= 96000.0\nmse = 0.0\nsamples = 64\nvalue = 0.0"] ;
237 -> 239 ;
240 [label="annual_inc <= 94000.0\nmse = 0.0\nsamples = 31\nvalue = 0.0"] ;
239 -> 240 ;
241 [label="mse = 0.0\nsamples = 29\nvalue = 0.0"] ;
240 -> 241 ;
242 [label="funded_amnt <= 10200.0\nmse = 0.2\nsamples = 2\nvalue = 0.5"] ;
240 -> 242 ;
243 [label="mse = 0.0\nsamples = 1\nvalue = 1.0"] ;
242 -> 243 ;
244 [label="mse = 0.0\nsamples = 1\nvalue = 0.0"] ;
242 -> 244 ;
245 [label="mse = 0.0\nsamples = 33\nvalue = 0.0"] ;
239 -> 245 ;
246 [label="annual_inc <= 120000.0\nmse = 0.2\nsamples = 2\nvalue = 0.3"] ;
232 -> 246 ;
247 [label="mse = 0.0\nsamples = 1\nvalue = 0.0"] ;
246 -> 247 ;
248 [label="mse = 0.0\nsamples = 1\nvalue = 1.0"] ;
246 -> 248 ;
249 [label="installment <= 342.6\nmse = 0.0\nsamples = 359\nvalue = 0.0"] ;
231 -> 249 ;
250 [label="mse = 0.0\nsamples = 258\nvalue = 0.0"] ;
249 -> 250 ;
251 [label="installment <= 342.7\nmse = 0.0\nsamples = 101\nvalue = 0.0"] ;
249 -> 251 ;
252 [label="annual_inc <= 94200.0\nmse = 0.1\nsamples = 8\nvalue = 0.1"] ;
251 -> 252 ;
253 [label="mse = 0.0\nsamples = 6\nvalue = 0.0"] ;
252 -> 253 ;
254 [label="mse = 0.2\nsamples = 2\nvalue = 0.3"] ;
252 -> 254 ;
255 [label="mse = 0.0\nsamples = 93\nvalue = 0.0"] ;
251 -> 255 ;
256 [label="annual_inc <= 155156.5\nmse = 0.0\nsamples = 46\nvalue = 0.0"] ;
230 -> 256 ;
257 [label="loan_amnt <= 11100.0\nmse = 0.2\nsamples = 2\nvalue = 0.7"] ;
256 -> 257 ;
258 [label="mse = 0.0\nsamples = 1\nvalue = 1.0"] ;
257 -> 258 ;
259 [label="mse = 0.0\nsamples = 1\nvalue = 0.0"] ;
257 -> 259 ;
260 [label="mse = 0.0\nsamples = 44\nvalue = 0.0"] ;
256 -> 260 ;
261 [label="annual_inc <= 225684.5\nmse = 0.0\nsamples = 24395\nvalue = 0.0"] ;
21 -> 261 ;
262 [label="annual_inc <= 90050.0\nmse = 0.0\nsamples = 22660\nvalue = 0.0"] ;
261 -> 262 ;
263 [label="annual_inc <= 68976.0\nmse = 0.0\nsamples = 10170\nvalue = 0.0"] ;
262 -> 263 ;
264 [label="annual_inc <= 30096.0\nmse = 0.0\nsamples = 4830\nvalue = 0.0"] ;
263 -> 264 ;
265 [label="sub_grade <= 11.5\nmse = 0.0\nsamples = 159\nvalue = 0.0"] ;
264 -> 265 ;
266 [label="installment <= 466.8\nmse = 0.0\nsamples = 37\nvalue = 0.0"] ;
265 -> 266 ;
267 [label="installment <= 451.7\nmse = 0.1\nsamples = 11\nvalue = 0.1"] ;
266 -> 267 ;
268 [label="mse = 0.0\nsamples = 5\nvalue = 0.0"] ;
267 -> 268 ;
269 [label="annual_inc <= 28000.0\nmse = 0.1\nsamples = 6\nvalue = 0.1"] ;
267 -> 269 ;
270 [label="mse = 0.0\nsamples = 1\nvalue = 0.0"] ;
269 -> 270 ;
271 [label="mse = 0.1\nsamples = 5\nvalue = 0.1"] ;
269 -> 271 ;
272 [label="mse = 0.0\nsamples = 26\nvalue = 0.0"] ;
266 -> 272 ;
273 [label="mse = 0.0\nsamples = 122\nvalue = 0.0"] ;
265 -> 273 ;
274 [label="mse = 0.0\nsamples = 4671\nvalue = 0.0"] ;
264 -> 274 ;
275 [label="annual_inc <= 70002.5\nmse = 0.0\nsamples = 5340\nvalue = 0.0"] ;
263 -> 275 ;
276 [label="term <= 1.5\nmse = 0.0\nsamples = 664\nvalue = 0.0"] ;
275 -> 276 ;
277 [label="sub_grade <= 11.5\nmse = 0.0\nsamples = 647\nvalue = 0.0"] ;
276 -> 277 ;
278 [label="installment <= 752.8\nmse = 0.0\nsamples = 173\nvalue = 0.0"] ;
277 -> 278 ;
279 [label="installment <= 542.0\nmse = 0.0\nsamples = 150\nvalue = 0.0"] ;
278 -> 279 ;
280 [label="mse = 0.0\nsamples = 92\nvalue = 0.0"] ;
279 -> 280 ;
281 [label="installment <= 560.1\nmse = 0.0\nsamples = 58\nvalue = 0.0"] ;
279 -> 281 ;
282 [label="mse = 0.1\nsamples = 8\nvalue = 0.1"] ;
281 -> 282 ;
283 [label="mse = 0.0\nsamples = 50\nvalue = 0.0"] ;
281 -> 283 ;
284 [label="installment <= 774.0\nmse = 0.1\nsamples = 23\nvalue = 0.1"] ;
278 -> 284 ;
285 [label="mse = 0.2\nsamples = 6\nvalue = 0.2"] ;
284 -> 285 ;
286 [label="mse = 0.0\nsamples = 17\nvalue = 0.0"] ;
284 -> 286 ;
287 [label="mse = 0.0\nsamples = 474\nvalue = 0.0"] ;
277 -> 287 ;
288 [label="annual_inc <= 69250.0\nmse = 0.0\nsamples = 17\nvalue = 0.0"] ;
276 -> 288 ;
289 [label="mse = 0.0\nsamples = 1\nvalue = 1.0"] ;
288 -> 289 ;
290 [label="mse = 0.0\nsamples = 16\nvalue = 0.0"] ;
288 -> 290 ;
291 [label="installment <= 771.3\nmse = 0.0\nsamples = 4676\nvalue = 0.0"] ;
275 -> 291 ;
292 [label="annual_inc <= 75021.5\nmse = 0.0\nsamples = 3917\nvalue = 0.0"] ;
291 -> 292 ;
293 [label="annual_inc <= 74875.0\nmse = 0.0\nsamples = 1032\nvalue = 0.0"] ;
292 -> 293 ;
294 [label="mse = 0.0\nsamples = 497\nvalue = 0.0"] ;
293 -> 294 ;
295 [label="sub_grade <= 12.5\nmse = 0.0\nsamples = 535\nvalue = 0.0"] ;
293 -> 295 ;
296 [label="installment <= 454.3\nmse = 0.0\nsamples = 369\nvalue = 0.0"] ;
295 -> 296 ;
297 [label="installment <= 451.7\nmse = 0.0\nsamples = 126\nvalue = 0.0"] ;
296 -> 297 ;
298 [label="mse = 0.0\nsamples = 87\nvalue = 0.0"] ;
297 -> 298 ;
299 [label="mse = 0.0\nsamples = 39\nvalue = 0.0"] ;
297 -> 299 ;
300 [label="mse = 0.0\nsamples = 243\nvalue = 0.0"] ;
296 -> 300 ;
301 [label="installment <= 557.6\nmse = 0.0\nsamples = 166\nvalue = 0.0"] ;
295 -> 301 ;
302 [label="mse = 0.0\nsamples = 117\nvalue = 0.0"] ;
301 -> 302 ;
303 [label="installment <= 563.9\nmse = 0.0\nsamples = 49\nvalue = 0.0"] ;
301 -> 303 ;
304 [label="mse = 0.2\nsamples = 4\nvalue = 0.2"] ;
303 -> 304 ;
305 [label="installment <= 616.6\nmse = 0.0\nsamples = 45\nvalue = 0.0"] ;
303 -> 305 ;
306 [label="mse = 0.0\nsamples = 20\nvalue = 0.0"] ;
305 -> 306 ;
307 [label="installment <= 618.4\nmse = 0.0\nsamples = 25\nvalue = 0.0"] ;
305 -> 307 ;
308 [label="mse = 0.2\nsamples = 3\nvalue = 0.2"] ;
307 -> 308 ;
309 [label="mse = 0.0\nsamples = 22\nvalue = 0.0"] ;
307 -> 309 ;
310 [label="annual_inc <= 85053.5\nmse = 0.0\nsamples = 2885\nvalue = 0.0"] ;
292 -> 310 ;
311 [label="annual_inc <= 84998.0\nmse = 0.0\nsamples = 1902\nvalue = 0.0"] ;
310 -> 311 ;
312 [label="installment <= 452.7\nmse = 0.0\nsamples = 1473\nvalue = 0.0"] ;
311 -> 312 ;
313 [label="installment <= 451.7\nmse = 0.0\nsamples = 491\nvalue = 0.0"] ;
312 -> 313 ;
314 [label="mse = 0.0\nsamples = 415\nvalue = 0.0"] ;
313 -> 314 ;
315 [label="annual_inc <= 79750.0\nmse = 0.0\nsamples = 76\nvalue = 0.0"] ;
313 -> 315 ;
316 [label="mse = 0.0\nsamples = 20\nvalue = 0.0"] ;
315 -> 316 ;
317 [label="annual_inc <= 80500.0\nmse = 0.0\nsamples = 56\nvalue = 0.0"] ;
315 -> 317 ;
318 [label="mse = 0.0\nsamples = 37\nvalue = 0.0"] ;
317 -> 318 ;
319 [label="mse = 0.0\nsamples = 19\nvalue = 0.0"] ;
317 -> 319 ;
320 [label="mse = 0.0\nsamples = 982\nvalue = 0.0"] ;
312 -> 320 ;
321 [label="installment <= 611.5\nmse = 0.0\nsamples = 429\nvalue = 0.0"] ;
311 -> 321 ;
322 [label="mse = 0.0\nsamples = 314\nvalue = 0.0"] ;
321 -> 322 ;
323 [label="installment <= 613.9\nmse = 0.0\nsamples = 115\nvalue = 0.0"] ;
321 -> 323 ;
324 [label="mse = 0.0\nsamples = 1\nvalue = 1.0"] ;
323 -> 324 ;
325 [label="mse = 0.0\nsamples = 114\nvalue = 0.0"] ;
323 -> 325 ;
326 [label="mse = 0.0\nsamples = 983\nvalue = 0.0"] ;
310 -> 326 ;
327 [label="installment <= 771.7\nmse = 0.0\nsamples = 759\nvalue = 0.0"] ;
291 -> 327 ;
328 [label="annual_inc <= 89500.0\nmse = 0.1\nsamples = 13\nvalue = 0.1"] ;
327 -> 328 ;
329 [label="mse = 0.0\nsamples = 10\nvalue = 0.0"] ;
328 -> 329 ;
330 [label="mse = 0.2\nsamples = 3\nvalue = 0.4"] ;
328 -> 330 ;
331 [label="installment <= 831.4\nmse = 0.0\nsamples = 746\nvalue = 0.0"] ;
327 -> 331 ;
332 [label="funded_amnt <= 27100.0\nmse = 0.0\nsamples = 146\nvalue = 0.0"] ;
331 -> 332 ;
333 [label="mse = 0.0\nsamples = 139\nvalue = 0.0"] ;
332 -> 333 ;
334 [label="annual_inc <= 77500.0\nmse = 0.1\nsamples = 7\nvalue = 0.2"] ;
332 -> 334 ;
335 [label="mse = 0.0\nsamples = 1\nvalue = 1.0"] ;
334 -> 335 ;
336 [label="annual_inc <= 86000.0\nmse = 0.1\nsamples = 6\nvalue = 0.1"] ;
334 -> 336 ;
337 [label="mse = 0.0\nsamples = 3\nvalue = 0.0"] ;
336 -> 337 ;
338 [label="loan_amnt <= 33800.0\nmse = 0.1\nsamples = 3\nvalue = 0.2"] ;
336 -> 338 ;
339 [label="mse = 0.2\nsamples = 2\nvalue = 0.2"] ;
338 -> 339 ;
340 [label="mse = 0.0\nsamples = 1\nvalue = 0.0"] ;
338 -> 340 ;
341 [label="mse = 0.0\nsamples = 600\nvalue = 0.0"] ;
331 -> 341 ;
342 [label="installment <= 370.4\nmse = 0.0\nsamples = 12490\nvalue = 0.0"] ;
262 -> 342 ;
343 [label="installment <= 370.0\nmse = 0.0\nsamples = 239\nvalue = 0.0"] ;
342 -> 343 ;
344 [label="mse = 0.0\nsamples = 219\nvalue = 0.0"] ;
343 -> 344 ;
345 [label="annual_inc <= 106000.0\nmse = 0.0\nsamples = 20\nvalue = 0.0"] ;
343 -> 345 ;
346 [label="mse = 0.0\nsamples = 7\nvalue = 0.0"] ;
345 -> 346 ;
347 [label="annual_inc <= 108500.0\nmse = 0.1\nsamples = 13\nvalue = 0.1"] ;
345 -> 347 ;
348 [label="mse = 0.0\nsamples = 1\nvalue = 1.0"] ;
347 -> 348 ;
349 [label="mse = 0.0\nsamples = 12\nvalue = 0.0"] ;
347 -> 349 ;
350 [label="annual_inc <= 135900.0\nmse = 0.0\nsamples = 12251\nvalue = 0.0"] ;
342 -> 350 ;
351 [label="mse = 0.0\nsamples = 7262\nvalue = 0.0"] ;
350 -> 351 ;
352 [label="annual_inc <= 136007.0\nmse = 0.0\nsamples = 4989\nvalue = 0.0"] ;
350 -> 352 ;
353 [label="installment <= 548.1\nmse = 0.0\nsamples = 26\nvalue = 0.0"] ;
352 -> 353 ;
354 [label="installment <= 487.9\nmse = 0.1\nsamples = 7\nvalue = 0.1"] ;
353 -> 354 ;
355 [label="mse = 0.0\nsamples = 6\nvalue = 0.0"] ;
354 -> 355 ;
356 [label="mse = 0.0\nsamples = 1\nvalue = 1.0"] ;
354 -> 356 ;
357 [label="mse = 0.0\nsamples = 19\nvalue = 0.0"] ;
353 -> 357 ;
358 [label="sub_grade <= 11.5\nmse = 0.0\nsamples = 4963\nvalue = 0.0"] ;
352 -> 358 ;
359 [label="installment <= 662.5\nmse = 0.0\nsamples = 2285\nvalue = 0.0"] ;
358 -> 359 ;
360 [label="mse = 0.0\nsamples = 898\nvalue = 0.0"] ;
359 -> 360 ;
361 [label="funded_amnt <= 22025.0\nmse = 0.0\nsamples = 1387\nvalue = 0.0"] ;
359 -> 361 ;
362 [label="annual_inc <= 162000.0\nmse = 0.0\nsamples = 19\nvalue = 0.0"] ;
361 -> 362 ;
363 [label="annual_inc <= 155000.0\nmse = 0.1\nsamples = 10\nvalue = 0.1"] ;
362 -> 363 ;
364 [label="mse = 0.0\nsamples = 7\nvalue = 0.0"] ;
363 -> 364 ;
365 [label="mse = 0.2\nsamples = 3\nvalue = 0.2"] ;
363 -> 365 ;
366 [label="mse = 0.0\nsamples = 9\nvalue = 0.0"] ;
362 -> 366 ;
367 [label="loan_amnt <= 28175.0\nmse = 0.0\nsamples = 1368\nvalue = 0.0"] ;
361 -> 367 ;
368 [label="installment <= 843.2\nmse = 0.0\nsamples = 527\nvalue = 0.0"] ;
367 -> 368 ;
369 [label="mse = 0.0\nsamples = 425\nvalue = 0.0"] ;
368 -> 369 ;
370 [label="annual_inc <= 179323.5\nmse = 0.0\nsamples = 102\nvalue = 0.0"] ;
368 -> 370 ;
371 [label="mse = 0.0\nsamples = 67\nvalue = 0.0"] ;
370 -> 371 ;
372 [label="annual_inc <= 180500.0\nmse = 0.0\nsamples = 35\nvalue = 0.0"] ;
370 -> 372 ;
373 [label="mse = 0.2\nsamples = 4\nvalue = 0.2"] ;
372 -> 373 ;
374 [label="mse = 0.0\nsamples = 31\nvalue = 0.0"] ;
372 -> 374 ;
375 [label="mse = 0.0\nsamples = 841\nvalue = 0.0"] ;
367 -> 375 ;
376 [label="mse = 0.0\nsamples = 2678\nvalue = 0.0"] ;
358 -> 376 ;
377 [label="annual_inc <= 226500.0\nmse = 0.0\nsamples = 1735\nvalue = 0.0"] ;
261 -> 377 ;
378 [label="sub_grade <= 12.5\nmse = 0.2\nsamples = 5\nvalue = 0.3"] ;
377 -> 378 ;
379 [label="mse = 0.0\nsamples = 4\nvalue = 0.0"] ;
378 -> 379 ;
380 [label="mse = 0.0\nsamples = 1\nvalue = 1.0"] ;
378 -> 380 ;
381 [label="annual_inc <= 250163.5\nmse = 0.0\nsamples = 1730\nvalue = 0.0"] ;
377 -> 381 ;
382 [label="annual_inc <= 249950.0\nmse = 0.0\nsamples = 535\nvalue = 0.0"] ;
381 -> 382 ;
383 [label="mse = 0.0\nsamples = 279\nvalue = 0.0"] ;
382 -> 383 ;
384 [label="sub_grade <= 11.5\nmse = 0.0\nsamples = 256\nvalue = 0.0"] ;
382 -> 384 ;
385 [label="loan_amnt <= 30800.0\nmse = 0.0\nsamples = 137\nvalue = 0.0"] ;
384 -> 385 ;
386 [label="installment <= 903.4\nmse = 0.0\nsamples = 72\nvalue = 0.0"] ;
385 -> 386 ;
387 [label="mse = 0.0\nsamples = 59\nvalue = 0.0"] ;
386 -> 387 ;
388 [label="mse = 0.1\nsamples = 13\nvalue = 0.1"] ;
386 -> 388 ;
389 [label="mse = 0.0\nsamples = 65\nvalue = 0.0"] ;
385 -> 389 ;
390 [label="mse = 0.0\nsamples = 119\nvalue = 0.0"] ;
384 -> 390 ;
391 [label="mse = 0.0\nsamples = 1195\nvalue = 0.0"] ;
381 -> 391 ;
392 [label="funded_amnt <= 35025.0\nmse = 0.0\nsamples = 127151\nvalue = 0.0"] ;
2 -> 392 ;
393 [label="annual_inc <= 91206.0\nmse = 0.0\nsamples = 121669\nvalue = 0.0"] ;
392 -> 393 ;
394 [label="annual_inc <= 91187.6\nmse = 0.0\nsamples = 87804\nvalue = 0.0"] ;
393 -> 394 ;
395 [label="loan_amnt <= 19662.5\nmse = 0.0\nsamples = 87793\nvalue = 0.0"] ;
394 -> 395 ;
396 [label="funded_amnt <= 19637.5\nmse = 0.0\nsamples = 75048\nvalue = 0.0"] ;
395 -> 396 ;
397 [label="sub_grade <= 21.5\nmse = 0.0\nsamples = 75043\nvalue = 0.0"] ;
396 -> 397 ;
398 [label="annual_inc <= 90918.5\nmse = 0.0\nsamples = 41782\nvalue = 0.0"] ;
397 -> 398 ;
399 [label="installment <= 155.2\nmse = 0.0\nsamples = 41677\nvalue = 0.0"] ;
398 -> 399 ;
400 [label="installment <= 78.0\nmse = 0.0\nsamples = 7566\nvalue = 0.0"] ;
399 -> 400 ;
401 [label="installment <= 77.6\nmse = 0.0\nsamples = 1865\nvalue = 0.0"] ;
400 -> 401 ;
402 [label="annual_inc <= 89500.0\nmse = 0.0\nsamples = 1827\nvalue = 0.0"] ;
401 -> 402 ;
403 [label="annual_inc <= 20006.5\nmse = 0.0\nsamples = 1801\nvalue = 0.0"] ;
402 -> 403 ;
404 [label="annual_inc <= 19942.0\nmse = 0.0\nsamples = 132\nvalue = 0.0"] ;
403 -> 404 ;
405 [label="mse = 0.0\nsamples = 114\nvalue = 0.0"] ;
404 -> 405 ;
406 [label="funded_amnt <= 1912.5\nmse = 0.1\nsamples = 18\nvalue = 0.1"] ;
404 -> 406 ;
407 [label="mse = 0.0\nsamples = 10\nvalue = 0.0"] ;
406 -> 407 ;
408 [label="installment <= 61.2\nmse = 0.1\nsamples = 8\nvalue = 0.1"] ;
406 -> 408 ;
409 [label="mse = 0.0\nsamples = 1\nvalue = 1.0"] ;
408 -> 409 ;
410 [label="mse = 0.0\nsamples = 7\nvalue = 0.0"] ;
408 -> 410 ;
411 [label="annual_inc <= 46928.0\nmse = 0.0\nsamples = 1669\nvalue = 0.0"] ;
403 -> 411 ;
412 [label="mse = 0.0\nsamples = 809\nvalue = 0.0"] ;
411 -> 412 ;
413 [label="annual_inc <= 47092.5\nmse = 0.0\nsamples = 860\nvalue = 0.0"] ;
411 -> 413 ;
414 [label="grade <= 1.5\nmse = 0.0\nsamples = 14\nvalue = 0.0"] ;
413 -> 414 ;
415 [label="mse = 0.0\nsamples = 8\nvalue = 0.0"] ;
414 -> 415 ;
416 [label="installment <= 63.2\nmse = 0.1\nsamples = 6\nvalue = 0.1"] ;
414 -> 416 ;
417 [label="installment <= 55.5\nmse = 0.2\nsamples = 3\nvalue = 0.2"] ;
416 -> 417 ;
418 [label="mse = 0.0\nsamples = 2\nvalue = 0.0"] ;
417 -> 418 ;
419 [label="mse = 0.0\nsamples = 1\nvalue = 1.0"] ;
417 -> 419 ;
420 [label="mse = 0.0\nsamples = 3\nvalue = 0.0"] ;
416 -> 420 ;
421 [label="annual_inc <= 51161.0\nmse = 0.0\nsamples = 846\nvalue = 0.0"] ;
413 -> 421 ;
422 [label="annual_inc <= 50800.0\nmse = 0.0\nsamples = 146\nvalue = 0.0"] ;
421 -> 422 ;
423 [label="mse = 0.0\nsamples = 134\nvalue = 0.0"] ;
422 -> 423 ;
424 [label="installment <= 40.1\nmse = 0.1\nsamples = 12\nvalue = 0.1"] ;
422 -> 424 ;
425 [label="loan_amnt <= 1212.5\nmse = 0.2\nsamples = 3\nvalue = 0.2"] ;
424 -> 425 ;
426 [label="mse = 0.0\nsamples = 2\nvalue = 0.0"] ;
425 -> 426 ;
427 [label="mse = 0.0\nsamples = 1\nvalue = 1.0"] ;
425 -> 427 ;
428 [label="mse = 0.0\nsamples = 9\nvalue = 0.0"] ;
424 -> 428 ;
429 [label="mse = 0.0\nsamples = 700\nvalue = 0.0"] ;
421 -> 429 ;
430 [label="installment <= 62.8\nmse = 0.0\nsamples = 26\nvalue = 0.0"] ;
402 -> 430 ;
431 [label="mse = 0.0\nsamples = 17\nvalue = 0.0"] ;
430 -> 431 ;
432 [label="installment <= 63.5\nmse = 0.1\nsamples = 9\nvalue = 0.1"] ;
430 -> 432 ;
433 [label="mse = 0.2\nsamples = 4\nvalue = 0.2"] ;
432 -> 433 ;
434 [label="mse = 0.0\nsamples = 5\nvalue = 0.0"] ;
432 -> 434 ;
435 [label="annual_inc <= 55567.5\nmse = 0.0\nsamples = 38\nvalue = 0.1"] ;
401 -> 435 ;
436 [label="mse = 0.0\nsamples = 29\nvalue = 0.0"] ;
435 -> 436 ;
437 [label="annual_inc <= 61000.0\nmse = 0.2\nsamples = 9\nvalue = 0.2"] ;
435 -> 437 ;
438 [label="mse = 0.0\nsamples = 2\nvalue = 1.0"] ;
437 -> 438 ;
439 [label="mse = 0.0\nsamples = 7\nvalue = 0.0"] ;
437 -> 439 ;
440 [label="annual_inc <= 40030.0\nmse = 0.0\nsamples = 5701\nvalue = 0.0"] ;
400 -> 440 ;
441 [label="installment <= 125.3\nmse = 0.0\nsamples = 2159\nvalue = 0.0"] ;
440 -> 441 ;
442 [label="annual_inc <= 39998.0\nmse = 0.0\nsamples = 1295\nvalue = 0.0"] ;
441 -> 442 ;
443 [label="mse = 0.0\nsamples = 1135\nvalue = 0.0"] ;
442 -> 443 ;
444 [label="installment <= 94.1\nmse = 0.0\nsamples = 160\nvalue = 0.0"] ;
442 -> 444 ;
445 [label="installment <= 94.0\nmse = 0.0\nsamples = 40\nvalue = 0.0"] ;
444 -> 445 ;
446 [label="mse = 0.0\nsamples = 37\nvalue = 0.0"] ;
445 -> 446 ;
447 [label="sub_grade <= 14.5\nmse = 0.2\nsamples = 3\nvalue = 0.3"] ;
445 -> 447 ;
448 [label="mse = 0.0\nsamples = 1\nvalue = 1.0"] ;
447 -> 448 ;
449 [label="mse = 0.0\nsamples = 2\nvalue = 0.0"] ;
447 -> 449 ;
450 [label="mse = 0.0\nsamples = 120\nvalue = 0.0"] ;
444 -> 450 ;
451 [label="installment <= 125.4\nmse = 0.0\nsamples = 864\nvalue = 0.0"] ;
441 -> 451 ;
452 [label="sub_grade <= 14.5\nmse = 0.0\nsamples = 34\nvalue = 0.0"] ;
451 -> 452 ;
453 [label="annual_inc <= 32000.0\nmse = 0.1\nsamples = 9\nvalue = 0.1"] ;
452 -> 453 ;
454 [label="annual_inc <= 29000.0\nmse = 0.2\nsamples = 4\nvalue = 0.2"] ;
453 -> 454 ;
455 [label="mse = 0.0\nsamples = 3\nvalue = 0.0"] ;
454 -> 455 ;
456 [label="mse = 0.0\nsamples = 1\nvalue = 1.0"] ;
454 -> 456 ;
457 [label="mse = 0.0\nsamples = 5\nvalue = 0.0"] ;
453 -> 457 ;
458 [label="mse = 0.0\nsamples = 25\nvalue = 0.0"] ;
452 -> 458 ;
459 [label="annual_inc <= 26906.0\nmse = 0.0\nsamples = 830\nvalue = 0.0"] ;
451 -> 459 ;
460 [label="mse = 0.0\nsamples = 235\nvalue = 0.0"] ;
459 -> 460 ;
461 [label="annual_inc <= 27070.0\nmse = 0.0\nsamples = 595\nvalue = 0.0"] ;
459 -> 461 ;
462 [label="installment <= 131.2\nmse = 0.0\nsamples = 13\nvalue = 0.1"] ;
461 -> 462 ;
463 [label="funded_amnt <= 4100.0\nmse = 0.2\nsamples = 4\nvalue = 0.2"] ;
462 -> 463 ;
464 [label="mse = 0.0\nsamples = 3\nvalue = 0.0"] ;
463 -> 464 ;
465 [label="mse = 0.0\nsamples = 1\nvalue = 1.0"] ;
463 -> 465 ;
466 [label="mse = 0.0\nsamples = 9\nvalue = 0.0"] ;
462 -> 466 ;
467 [label="installment <= 140.4\nmse = 0.0\nsamples = 582\nvalue = 0.0"] ;
461 -> 467 ;
468 [label="mse = 0.0\nsamples = 267\nvalue = 0.0"] ;
467 -> 468 ;
469 [label="installment <= 140.8\nmse = 0.0\nsamples = 315\nvalue = 0.0"] ;
467 -> 469 ;
470 [label="annual_inc <= 32500.0\nmse = 0.2\nsamples = 2\nvalue = 0.5"] ;
469 -> 470 ;
471 [label="mse = 0.0\nsamples = 1\nvalue = 1.0"] ;
470 -> 471 ;
472 [label="mse = 0.0\nsamples = 1\nvalue = 0.0"] ;
470 -> 472 ;
473 [label="grade <= 1.5\nmse = 0.0\nsamples = 313\nvalue = 0.0"] ;
469 -> 473 ;
474 [label="mse = 0.0\nsamples = 212\nvalue = 0.0"] ;
473 -> 474 ;
475 [label="installment <= 153.6\nmse = 0.0\nsamples = 101\nvalue = 0.0"] ;
473 -> 475 ;
476 [label="mse = 0.0\nsamples = 70\nvalue = 0.0"] ;
475 -> 476 ;
477 [label="annual_inc <= 35500.0\nmse = 0.0\nsamples = 31\nvalue = 0.0"] ;
475 -> 477 ;
478 [label="mse = 0.0\nsamples = 15\nvalue = 0.0"] ;
477 -> 478 ;
479 [label="annual_inc <= 37000.0\nmse = 0.0\nsamples = 16\nvalue = 0.0"] ;
477 -> 479 ;
480 [label="mse = 0.2\nsamples = 4\nvalue = 0.2"] ;
479 -> 480 ;
481 [label="mse = 0.0\nsamples = 12\nvalue = 0.0"] ;
479 -> 481 ;
482 [label="annual_inc <= 84998.0\nmse = 0.0\nsamples = 3542\nvalue = 0.0"] ;
440 -> 482 ;
483 [label="annual_inc <= 63878.5\nmse = 0.0\nsamples = 3292\nvalue = 0.0"] ;
482 -> 483 ;
484 [label="mse = 0.0\nsamples = 2165\nvalue = 0.0"] ;
483 -> 484 ;
485 [label="annual_inc <= 64050.0\nmse = 0.0\nsamples = 1127\nvalue = 0.0"] ;
483 -> 485 ;
486 [label="installment <= 113.4\nmse = 0.0\nsamples = 28\nvalue = 0.0"] ;
485 -> 486 ;
487 [label="funded_amnt <= 3550.0\nmse = 0.1\nsamples = 10\nvalue = 0.1"] ;
486 -> 487 ;
488 [label="mse = 0.0\nsamples = 9\nvalue = 0.0"] ;
487 -> 488 ;
489 [label="mse = 0.0\nsamples = 1\nvalue = 1.0"] ;
487 -> 489 ;
490 [label="mse = 0.0\nsamples = 18\nvalue = 0.0"] ;
486 -> 490 ;
491 [label="mse = 0.0\nsamples = 1099\nvalue = 0.0"] ;
485 -> 491 ;
492 [label="annual_inc <= 85095.0\nmse = 0.0\nsamples = 250\nvalue = 0.0"] ;
482 -> 492 ;
493 [label="installment <= 125.4\nmse = 0.0\nsamples = 83\nvalue = 0.0"] ;
492 -> 493 ;
494 [label="installment <= 124.7\nmse = 0.0\nsamples = 42\nvalue = 0.0"] ;
493 -> 494 ;
495 [label="mse = 0.0\nsamples = 39\nvalue = 0.0"] ;
494 -> 495 ;
496 [label="mse = 0.2\nsamples = 3\nvalue = 0.3"] ;
494 -> 496 ;
497 [label="mse = 0.0\nsamples = 41\nvalue = 0.0"] ;
493 -> 497 ;
498 [label="mse = 0.0\nsamples = 167\nvalue = 0.0"] ;
492 -> 498 ;
499 [label="installment <= 159.0\nmse = 0.0\nsamples = 34111\nvalue = 0.0"] ;
399 -> 499 ;
500 [label="annual_inc <= 56700.0\nmse = 0.0\nsamples = 1985\nvalue = 0.0"] ;
499 -> 500 ;
501 [label="sub_grade <= 18.0\nmse = 0.0\nsamples = 1237\nvalue = 0.0"] ;
500 -> 501 ;
502 [label="annual_inc <= 28150.0\nmse = 0.0\nsamples = 836\nvalue = 0.0"] ;
501 -> 502 ;
503 [label="annual_inc <= 27750.0\nmse = 0.0\nsamples = 117\nvalue = 0.0"] ;
502 -> 503 ;
504 [label="mse = 0.0\nsamples = 109\nvalue = 0.0"] ;
503 -> 504 ;
505 [label="sub_grade <= 14.5\nmse = 0.1\nsamples = 8\nvalue = 0.1"] ;
503 -> 505 ;
506 [label="installment <= 156.1\nmse = 0.2\nsamples = 3\nvalue = 0.3"] ;
505 -> 506 ;
507 [label="mse = 0.0\nsamples = 2\nvalue = 0.0"] ;
506 -> 507 ;
508 [label="mse = 0.0\nsamples = 1\nvalue = 1.0"] ;
506 -> 508 ;
509 [label="mse = 0.0\nsamples = 5\nvalue = 0.0"] ;
505 -> 509 ;
510 [label="mse = 0.0\nsamples = 719\nvalue = 0.0"] ;
502 -> 510 ;
511 [label="annual_inc <= 39752.5\nmse = 0.0\nsamples = 401\nvalue = 0.0"] ;
501 -> 511 ;
512 [label="mse = 0.0\nsamples = 160\nvalue = 0.0"] ;
511 -> 512 ;
513 [label="annual_inc <= 40500.0\nmse = 0.0\nsamples = 241\nvalue = 0.0"] ;
511 -> 513 ;
514 [label="installment <= 157.4\nmse = 0.0\nsamples = 37\nvalue = 0.0"] ;
513 -> 514 ;
515 [label="mse = 0.0\nsamples = 16\nvalue = 0.0"] ;
514 -> 515 ;
516 [label="installment <= 158.3\nmse = 0.1\nsamples = 21\nvalue = 0.1"] ;
514 -> 516 ;
517 [label="mse = 0.1\nsamples = 9\nvalue = 0.1"] ;
516 -> 517 ;
518 [label="mse = 0.0\nsamples = 12\nvalue = 0.0"] ;
516 -> 518 ;
519 [label="annual_inc <= 48117.5\nmse = 0.0\nsamples = 204\nvalue = 0.0"] ;
513 -> 519 ;
520 [label="annual_inc <= 47964.0\nmse = 0.0\nsamples = 88\nvalue = 0.0"] ;
519 -> 520 ;
521 [label="mse = 0.0\nsamples = 73\nvalue = 0.0"] ;
520 -> 521 ;
522 [label="installment <= 157.4\nmse = 0.1\nsamples = 15\nvalue = 0.1"] ;
520 -> 522 ;
523 [label="mse = 0.1\nsamples = 9\nvalue = 0.1"] ;
522 -> 523 ;
524 [label="mse = 0.0\nsamples = 6\nvalue = 0.0"] ;
522 -> 524 ;
525 [label="mse = 0.0\nsamples = 116\nvalue = 0.0"] ;
519 -> 525 ;
526 [label="annual_inc <= 59250.0\nmse = 0.0\nsamples = 748\nvalue = 0.0"] ;
500 -> 526 ;
527 [label="annual_inc <= 58900.0\nmse = 0.1\nsamples = 39\nvalue = 0.1"] ;
526 -> 527 ;
528 [label="installment <= 157.8\nmse = 0.0\nsamples = 36\nvalue = 0.0"] ;
527 -> 528 ;
529 [label="mse = 0.0\nsamples = 30\nvalue = 0.0"] ;
528 -> 529 ;
530 [label="annual_inc <= 57338.5\nmse = 0.2\nsamples = 6\nvalue = 0.2"] ;
528 -> 530 ;
531 [label="mse = 0.0\nsamples = 1\nvalue = 1.0"] ;
530 -> 531 ;
532 [label="mse = 0.0\nsamples = 5\nvalue = 0.0"] ;
530 -> 532 ;
533 [label="sub_grade <= 14.5\nmse = 0.2\nsamples = 3\nvalue = 0.4"] ;
527 -> 533 ;
534 [label="mse = 0.0\nsamples = 1\nvalue = 1.0"] ;
533 -> 534 ;
535 [label="mse = 0.0\nsamples = 2\nvalue = 0.0"] ;
533 -> 535 ;
536 [label="installment <= 155.4\nmse = 0.0\nsamples = 709\nvalue = 0.0"] ;
526 -> 536 ;
537 [label="annual_inc <= 86176.0\nmse = 0.0\nsamples = 48\nvalue = 0.0"] ;
536 -> 537 ;
538 [label="mse = 0.0\nsamples = 42\nvalue = 0.0"] ;
537 -> 538 ;
539 [label="annual_inc <= 87676.0\nmse = 0.2\nsamples = 6\nvalue = 0.2"] ;
537 -> 539 ;
540 [label="mse = 0.0\nsamples = 1\nvalue = 1.0"] ;
539 -> 540 ;
541 [label="mse = 0.0\nsamples = 5\nvalue = 0.0"] ;
539 -> 541 ;
542 [label="installment <= 158.9\nmse = 0.0\nsamples = 661\nvalue = 0.0"] ;
536 -> 542 ;
543 [label="annual_inc <= 65229.5\nmse = 0.0\nsamples = 576\nvalue = 0.0"] ;
542 -> 543 ;
544 [label="annual_inc <= 64738.6\nmse = 0.0\nsamples = 183\nvalue = 0.0"] ;
543 -> 544 ;
545 [label="mse = 0.0\nsamples = 139\nvalue = 0.0"] ;
544 -> 545 ;
546 [label="installment <= 156.6\nmse = 0.0\nsamples = 44\nvalue = 0.0"] ;
544 -> 546 ;
547 [label="installment <= 156.6\nmse = 0.1\nsamples = 21\nvalue = 0.1"] ;
546 -> 547 ;
548 [label="mse = 0.0\nsamples = 8\nvalue = 0.0"] ;
547 -> 548 ;
549 [label="mse = 0.1\nsamples = 13\nvalue = 0.2"] ;
547 -> 549 ;
550 [label="mse = 0.0\nsamples = 23\nvalue = 0.0"] ;
546 -> 550 ;
551 [label="sub_grade <= 18.0\nmse = 0.0\nsamples = 393\nvalue = 0.0"] ;
543 -> 551 ;
552 [label="mse = 0.0\nsamples = 277\nvalue = 0.0"] ;
551 -> 552 ;
553 [label="annual_inc <= 79500.0\nmse = 0.0\nsamples = 116\nvalue = 0.0"] ;
551 -> 553 ;
554 [label="mse = 0.0\nsamples = 71\nvalue = 0.0"] ;
553 -> 554 ;
555 [label="annual_inc <= 80500.0\nmse = 0.0\nsamples = 45\nvalue = 0.0"] ;
553 -> 555 ;
556 [label="installment <= 157.4\nmse = 0.0\nsamples = 16\nvalue = 0.0"] ;
555 -> 556 ;
557 [label="mse = 0.0\nsamples = 13\nvalue = 0.0"] ;
556 -> 557 ;
558 [label="mse = 0.0\nsamples = 3\nvalue = 0.0"] ;
556 -> 558 ;
559 [label="mse = 0.0\nsamples = 29\nvalue = 0.0"] ;
555 -> 559 ;
560 [label="annual_inc <= 79750.0\nmse = 0.0\nsamples = 85\nvalue = 0.0"] ;
542 -> 560 ;
561 [label="annual_inc <= 62084.5\nmse = 0.0\nsamples = 60\nvalue = 0.0"] ;
560 -> 561 ;
562 [label="annual_inc <= 61859.5\nmse = 0.0\nsamples = 19\nvalue = 0.0"] ;
561 -> 562 ;
563 [label="mse = 0.0\nsamples = 18\nvalue = 0.0"] ;
562 -> 563 ;
564 [label="mse = 0.0\nsamples = 1\nvalue = 1.0"] ;
562 -> 564 ;
565 [label="mse = 0.0\nsamples = 41\nvalue = 0.0"] ;
561 -> 565 ;
566 [label="annual_inc <= 80238.5\nmse = 0.0\nsamples = 25\nvalue = 0.1"] ;
560 -> 566 ;
567 [label="mse = 0.2\nsamples = 7\nvalue = 0.2"] ;
566 -> 567 ;
568 [label="mse = 0.0\nsamples = 18\nvalue = 0.0"] ;
566 -> 568 ;
569 [label="installment <= 508.5\nmse = 0.0\nsamples = 32126\nvalue = 0.0"] ;
499 -> 569 ;
570 [label="installment <= 187.6\nmse = 0.0\nsamples = 30376\nvalue = 0.0"] ;
569 -> 570 ;
571 [label="annual_inc <= 49996.0\nmse = 0.0\nsamples = 2319\nvalue = 0.0"] ;
570 -> 571 ;
572 [label="mse = 0.0\nsamples = 1141\nvalue = 0.0"] ;
571 -> 572 ;
573 [label="annual_inc <= 55200.0\nmse = 0.0\nsamples = 1178\nvalue = 0.0"] ;
571 -> 573 ;
574 [label="installment <= 173.6\nmse = 0.0\nsamples = 317\nvalue = 0.0"] ;
573 -> 574 ;
575 [label="installment <= 173.2\nmse = 0.0\nsamples = 159\nvalue = 0.0"] ;
574 -> 575 ;
576 [label="installment <= 172.3\nmse = 0.0\nsamples = 156\nvalue = 0.0"] ;
575 -> 576 ;
577 [label="mse = 0.0\nsamples = 145\nvalue = 0.0"] ;
576 -> 577 ;
578 [label="annual_inc <= 50500.0\nmse = 0.1\nsamples = 11\nvalue = 0.1"] ;
576 -> 578 ;
579 [label="installment <= 172.4\nmse = 0.2\nsamples = 3\nvalue = 0.2"] ;
578 -> 579 ;
580 [label="mse = 0.0\nsamples = 1\nvalue = 1.0"] ;
579 -> 580 ;
581 [label="mse = 0.0\nsamples = 2\nvalue = 0.0"] ;
579 -> 581 ;
582 [label="mse = 0.0\nsamples = 8\nvalue = 0.0"] ;
578 -> 582 ;
583 [label="annual_inc <= 54889.4\nmse = 0.2\nsamples = 3\nvalue = 0.3"] ;
575 -> 583 ;
584 [label="mse = 0.0\nsamples = 2\nvalue = 0.0"] ;
583 -> 584 ;
585 [label="mse = 0.0\nsamples = 1\nvalue = 1.0"] ;
583 -> 585 ;
586 [label="mse = 0.0\nsamples = 158\nvalue = 0.0"] ;
574 -> 586 ;
587 [label="mse = 0.0\nsamples = 861\nvalue = 0.0"] ;
573 -> 587 ;
588 [label="installment <= 187.8\nmse = 0.0\nsamples = 28057\nvalue = 0.0"] ;
570 -> 588 ;
589 [label="annual_inc <= 70500.0\nmse = 0.0\nsamples = 70\nvalue = 0.0"] ;
588 -> 589 ;
590 [label="mse = 0.0\nsamples = 60\nvalue = 0.0"] ;
589 -> 590 ;
591 [label="annual_inc <= 73000.0\nmse = 0.2\nsamples = 10\nvalue = 0.2"] ;
589 -> 591 ;
592 [label="mse = 0.0\nsamples = 1\nvalue = 1.0"] ;
591 -> 592 ;
593 [label="annual_inc <= 82500.0\nmse = 0.1\nsamples = 9\nvalue = 0.1"] ;
591 -> 593 ;
594 [label="annual_inc <= 79750.0\nmse = 0.2\nsamples = 5\nvalue = 0.2"] ;
593 -> 594 ;
595 [label="mse = 0.0\nsamples = 2\nvalue = 0.0"] ;
594 -> 595 ;
596 [label="mse = 0.2\nsamples = 3\nvalue = 0.4"] ;
594 -> 596 ;
597 [label="mse = 0.0\nsamples = 4\nvalue = 0.0"] ;
593 -> 597 ;
598 [label="funded_amnt <= 7662.5\nmse = 0.0\nsamples = 27987\nvalue = 0.0"] ;
588 -> 598 ;
599 [label="funded_amnt <= 7625.0\nmse = 0.0\nsamples = 5541\nvalue = 0.0"] ;
598 -> 599 ;
600 [label="installment <= 232.9\nmse = 0.0\nsamples = 5537\nvalue = 0.0"] ;
599 -> 600 ;
601 [label="annual_inc <= 28040.0\nmse = 0.0\nsamples = 5099\nvalue = 0.0"] ;
600 -> 601 ;
602 [label="annual_inc <= 27003.5\nmse = 0.0\nsamples = 361\nvalue = 0.0"] ;
601 -> 602 ;
603 [label="mse = 0.0\nsamples = 316\nvalue = 0.0"] ;
602 -> 603 ;
604 [label="annual_inc <= 27023.5\nmse = 0.1\nsamples = 45\nvalue = 0.1"] ;
602 -> 604 ;
605 [label="mse = 0.0\nsamples = 1\nvalue = 1.0"] ;
604 -> 605 ;
606 [label="sub_grade <= 18.0\nmse = 0.1\nsamples = 44\nvalue = 0.1"] ;
604 -> 606 ;
607 [label="mse = 0.0\nsamples = 30\nvalue = 0.0"] ;
606 -> 607 ;
608 [label="loan_amnt <= 6450.0\nmse = 0.1\nsamples = 14\nvalue = 0.2"] ;
606 -> 608 ;
609 [label="installment <= 202.6\nmse = 0.2\nsamples = 7\nvalue = 0.3"] ;
608 -> 609 ;
610 [label="mse = 0.0\nsamples = 5\nvalue = 0.0"] ;
609 -> 610 ;
611 [label="mse = 0.2\nsamples = 2\nvalue = 0.6"] ;
609 -> 611 ;
612 [label="mse = 0.0\nsamples = 7\nvalue = 0.0"] ;
608 -> 612 ;
613 [label="installment <= 189.2\nmse = 0.0\nsamples = 4738\nvalue = 0.0"] ;
601 -> 613 ;
614 [label="installment <= 189.1\nmse = 0.0\nsamples = 1133\nvalue = 0.0"] ;
613 -> 614 ;
615 [label="annual_inc <= 50428.0\nmse = 0.0\nsamples = 1051\nvalue = 0.0"] ;
614 -> 615 ;
616 [label="annual_inc <= 49996.0\nmse = 0.0\nsamples = 502\nvalue = 0.0"] ;
615 -> 616 ;
617 [label="annual_inc <= 43100.0\nmse = 0.0\nsamples = 433\nvalue = 0.0"] ;
616 -> 617 ;
618 [label="mse = 0.0\nsamples = 323\nvalue = 0.0"] ;
617 -> 618 ;
619 [label="annual_inc <= 43350.0\nmse = 0.0\nsamples = 110\nvalue = 0.0"] ;
617 -> 619 ;
620 [label="mse = 0.0\nsamples = 1\nvalue = 1.0"] ;
619 -> 620 ;
621 [label="mse = 0.0\nsamples = 109\nvalue = 0.0"] ;
619 -> 621 ;
622 [label="installment <= 188.0\nmse = 0.0\nsamples = 69\nvalue = 0.0"] ;
616 -> 622 ;
623 [label="installment <= 188.0\nmse = 0.1\nsamples = 39\nvalue = 0.1"] ;
622 -> 623 ;
624 [label="mse = 0.0\nsamples = 19\nvalue = 0.0"] ;
623 -> 624 ;
625 [label="sub_grade <= 14.5\nmse = 0.1\nsamples = 20\nvalue = 0.1"] ;
623 -> 625 ;
626 [label="mse = 0.0\nsamples = 8\nvalue = 0.0"] ;
625 -> 626 ;
627 [label="mse = 0.1\nsamples = 12\nvalue = 0.2"] ;
625 -> 627 ;
628 [label="mse = 0.0\nsamples = 30\nvalue = 0.0"] ;
622 -> 628 ;
629 [label="mse = 0.0\nsamples = 549\nvalue = 0.0"] ;
615 -> 629 ;
630 [label="annual_inc <= 69250.0\nmse = 0.0\nsamples = 82\nvalue = 0.0"] ;
614 -> 630 ;
631 [label="mse = 0.0\nsamples = 66\nvalue = 0.0"] ;
630 -> 631 ;
632 [label="annual_inc <= 71000.0\nmse = 0.1\nsamples = 16\nvalue = 0.2"] ;
630 -> 632 ;
633 [label="mse = 0.2\nsamples = 4\nvalue = 0.5"] ;
632 -> 633 ;
634 [label="mse = 0.0\nsamples = 12\nvalue = 0.0"] ;
632 -> 634 ;
635 [label="installment <= 217.3\nmse = 0.0\nsamples = 3605\nvalue = 0.0"] ;
613 -> 635 ;
636 [label="mse = 0.0\nsamples = 1897\nvalue = 0.0"] ;
635 -> 636 ;
637 [label="installment <= 217.5\nmse = 0.0\nsamples = 1708\nvalue = 0.0"] ;
635 -> 637 ;
638 [label="annual_inc <= 37500.0\nmse = 0.0\nsamples = 48\nvalue = 0.0"] ;
637 -> 638 ;
639 [label="annual_inc <= 35990.0\nmse = 0.2\nsamples = 7\nvalue = 0.2"] ;
638 -> 639 ;
640 [label="mse = 0.0\nsamples = 3\nvalue = 0.0"] ;
639 -> 640 ;
641 [label="mse = 0.2\nsamples = 4\nvalue = 0.4"] ;
639 -> 641 ;
642 [label="mse = 0.0\nsamples = 41\nvalue = 0.0"] ;
638 -> 642 ;
643 [label="installment <= 220.2\nmse = 0.0\nsamples = 1660\nvalue = 0.0"] ;
637 -> 643 ;
644 [label="installment <= 220.1\nmse = 0.0\nsamples = 637\nvalue = 0.0"] ;
643 -> 644 ;
645 [label="annual_inc <= 39345.0\nmse = 0.0\nsamples = 487\nvalue = 0.0"] ;
644 -> 645 ;
646 [label="annual_inc <= 39095.0\nmse = 0.0\nsamples = 78\nvalue = 0.0"] ;
645 -> 646 ;
647 [label="mse = 0.0\nsamples = 77\nvalue = 0.0"] ;
646 -> 647 ;
648 [label="mse = 0.0\nsamples = 1\nvalue = 1.0"] ;
646 -> 648 ;
649 [label="installment <= 219.3\nmse = 0.0\nsamples = 409\nvalue = 0.0"] ;
645 -> 649 ;
650 [label="mse = 0.0\nsamples = 298\nvalue = 0.0"] ;
649 -> 650 ;
651 [label="annual_inc <= 55250.0\nmse = 0.0\nsamples = 111\nvalue = 0.0"] ;
649 -> 651 ;
652 [label="annual_inc <= 54540.0\nmse = 0.0\nsamples = 49\nvalue = 0.0"] ;
651 -> 652 ;
653 [label="mse = 0.0\nsamples = 43\nvalue = 0.0"] ;
652 -> 653 ;
654 [label="installment <= 219.5\nmse = 0.1\nsamples = 6\nvalue = 0.1"] ;
652 -> 654 ;
655 [label="sub_grade <= 14.5\nmse = 0.1\nsamples = 4\nvalue = 0.2"] ;
654 -> 655 ;
656 [label="mse = 0.0\nsamples = 1\nvalue = 0.0"] ;
655 -> 656 ;
657 [label="mse = 0.2\nsamples = 3\nvalue = 0.2"] ;
655 -> 657 ;
658 [label="mse = 0.0\nsamples = 2\nvalue = 0.0"] ;
654 -> 658 ;
659 [label="mse = 0.0\nsamples = 62\nvalue = 0.0"] ;
651 -> 659 ;
660 [label="annual_inc <= 71500.0\nmse = 0.0\nsamples = 150\nvalue = 0.0"] ;
644 -> 660 ;
661 [label="annual_inc <= 44250.0\nmse = 0.0\nsamples = 117\nvalue = 0.0"] ;
660 -> 661 ;
662 [label="annual_inc <= 43500.0\nmse = 0.0\nsamples = 33\nvalue = 0.0"] ;
661 -> 662 ;
663 [label="mse = 0.0\nsamples = 31\nvalue = 0.0"] ;
662 -> 663 ;
664 [label="mse = 0.2\nsamples = 2\nvalue = 0.3"] ;
662 -> 664 ;
665 [label="mse = 0.0\nsamples = 84\nvalue = 0.0"] ;
661 -> 665 ;
666 [label="annual_inc <= 73000.0\nmse = 0.0\nsamples = 33\nvalue = 0.0"] ;
660 -> 666 ;
667 [label="mse = 0.2\nsamples = 3\nvalue = 0.3"] ;
666 -> 667 ;
668 [label="mse = 0.0\nsamples = 30\nvalue = 0.0"] ;
666 -> 668 ;
669 [label="installment <= 226.3\nmse = 0.0\nsamples = 1023\nvalue = 0.0"] ;
643 -> 669 ;
670 [label="mse = 0.0\nsamples = 698\nvalue = 0.0"] ;
669 -> 670 ;
671 [label="installment <= 226.5\nmse = 0.0\nsamples = 325\nvalue = 0.0"] ;
669 -> 671 ;
672 [label="annual_inc <= 47500.0\nmse = 0.0\nsamples = 54\nvalue = 0.0"] ;
671 -> 672 ;
673 [label="annual_inc <= 43500.0\nmse = 0.0\nsamples = 15\nvalue = 0.0"] ;
672 -> 673 ;
674 [label="mse = 0.0\nsamples = 12\nvalue = 0.0"] ;
673 -> 674 ;
675 [label="mse = 0.2\nsamples = 3\nvalue = 0.2"] ;
673 -> 675 ;
676 [label="mse = 0.0\nsamples = 39\nvalue = 0.0"] ;
672 -> 676 ;
677 [label="mse = 0.0\nsamples = 271\nvalue = 0.0"] ;
671 -> 677 ;
678 [label="installment <= 234.8\nmse = 0.0\nsamples = 438\nvalue = 0.0"] ;
600 -> 678 ;
679 [label="sub_grade <= 14.5\nmse = 0.0\nsamples = 73\nvalue = 0.0"] ;
678 -> 679 ;
680 [label="annual_inc <= 36444.0\nmse = 0.0\nsamples = 59\nvalue = 0.0"] ;
679 -> 680 ;
681 [label="annual_inc <= 34500.0\nmse = 0.1\nsamples = 12\nvalue = 0.1"] ;
680 -> 681 ;
682 [label="mse = 0.0\nsamples = 9\nvalue = 0.0"] ;
681 -> 682 ;
683 [label="loan_amnt <= 7525.0\nmse = 0.2\nsamples = 3\nvalue = 0.2"] ;
681 -> 683 ;
684 [label="mse = 0.2\nsamples = 2\nvalue = 0.3"] ;
683 -> 684 ;
685 [label="mse = 0.0\nsamples = 1\nvalue = 0.0"] ;
683 -> 685 ;
686 [label="mse = 0.0\nsamples = 47\nvalue = 0.0"] ;
680 -> 686 ;
687 [label="annual_inc <= 56250.0\nmse = 0.1\nsamples = 14\nvalue = 0.2"] ;
679 -> 687 ;
688 [label="annual_inc <= 53500.0\nmse = 0.2\nsamples = 8\nvalue = 0.3"] ;
687 -> 688 ;
689 [label="installment <= 233.6\nmse = 0.1\nsamples = 6\nvalue = 0.1"] ;
688 -> 689 ;
690 [label="annual_inc <= 43027.5\nmse = 0.2\nsamples = 2\nvalue = 0.5"] ;
689 -> 690 ;
691 [label="mse = 0.0\nsamples = 1\nvalue = 1.0"] ;
690 -> 691 ;
692 [label="mse = 0.0\nsamples = 1\nvalue = 0.0"] ;
690 -> 692 ;
693 [label="mse = 0.0\nsamples = 4\nvalue = 0.0"] ;
689 -> 693 ;
694 [label="installment <= 234.0\nmse = 0.2\nsamples = 2\nvalue = 0.8"] ;
688 -> 694 ;
695 [label="mse = 0.0\nsamples = 1\nvalue = 0.0"] ;
694 -> 695 ;
696 [label="mse = 0.0\nsamples = 1\nvalue = 1.0"] ;
694 -> 696 ;
697 [label="mse = 0.0\nsamples = 6\nvalue = 0.0"] ;
687 -> 697 ;
698 [label="installment <= 237.0\nmse = 0.0\nsamples = 365\nvalue = 0.0"] ;
678 -> 698 ;
699 [label="mse = 0.0\nsamples = 210\nvalue = 0.0"] ;
698 -> 699 ;
700 [label="installment <= 237.2\nmse = 0.0\nsamples = 155\nvalue = 0.0"] ;
698 -> 700 ;
701 [label="annual_inc <= 51500.0\nmse = 0.1\nsamples = 13\nvalue = 0.1"] ;
700 -> 701 ;
702 [label="mse = 0.0\nsamples = 7\nvalue = 0.0"] ;
701 -> 702 ;
703 [label="annual_inc <= 59500.0\nmse = 0.2\nsamples = 6\nvalue = 0.2"] ;
701 -> 703 ;
704 [label="mse = 0.0\nsamples = 1\nvalue = 1.0"] ;
703 -> 704 ;
705 [label="mse = 0.0\nsamples = 5\nvalue = 0.0"] ;
703 -> 705 ;
706 [label="mse = 0.0\nsamples = 142\nvalue = 0.0"] ;
700 -> 706 ;
707 [label="installment <= 241.4\nmse = 0.2\nsamples = 4\nvalue = 0.4"] ;
599 -> 707 ;
708 [label="mse = 0.0\nsamples = 2\nvalue = 0.0"] ;
707 -> 708 ;
709 [label="installment <= 244.0\nmse = 0.2\nsamples = 2\nvalue = 0.7"] ;
707 -> 709 ;
710 [label="mse = 0.0\nsamples = 1\nvalue = 1.0"] ;
709 -> 710 ;
711 [label="mse = 0.0\nsamples = 1\nvalue = 0.0"] ;
709 -> 711 ;
712 [label="loan_amnt <= 15025.0\nmse = 0.0\nsamples = 22446\nvalue = 0.0"] ;
598 -> 712 ;
713 [label="funded_amnt <= 11987.5\nmse = 0.0\nsamples = 20691\nvalue = 0.0"] ;
712 -> 713 ;
714 [label="installment <= 250.2\nmse = 0.0\nsamples = 12746\nvalue = 0.0"] ;
713 -> 714 ;
715 [label="mse = 0.0\nsamples = 1386\nvalue = 0.0"] ;
714 -> 715 ;
716 [label="installment <= 250.3\nmse = 0.0\nsamples = 11360\nvalue = 0.0"] ;
714 -> 716 ;
717 [label="annual_inc <= 73105.0\nmse = 0.0\nsamples = 60\nvalue = 0.0"] ;
716 -> 717 ;
718 [label="annual_inc <= 43500.0\nmse = 0.0\nsamples = 45\nvalue = 0.0"] ;
717 -> 718 ;
719 [label="annual_inc <= 41000.0\nmse = 0.0\nsamples = 17\nvalue = 0.0"] ;
718 -> 719 ;
720 [label="mse = 0.0\nsamples = 15\nvalue = 0.0"] ;
719 -> 720 ;
721 [label="mse = 0.2\nsamples = 2\nvalue = 0.5"] ;
719 -> 721 ;
722 [label="mse = 0.0\nsamples = 28\nvalue = 0.0"] ;
718 -> 722 ;
723 [label="annual_inc <= 74105.0\nmse = 0.0\nsamples = 15\nvalue = 0.1"] ;
717 -> 723 ;
724 [label="mse = 0.0\nsamples = 1\nvalue = 1.0"] ;
723 -> 724 ;
725 [label="mse = 0.0\nsamples = 14\nvalue = 0.0"] ;
723 -> 725 ;
726 [label="annual_inc <= 35072.0\nmse = 0.0\nsamples = 11300\nvalue = 0.0"] ;
716 -> 726 ;
727 [label="annual_inc <= 31996.1\nmse = 0.0\nsamples = 1411\nvalue = 0.0"] ;
726 -> 727 ;
728 [label="sub_grade <= 14.5\nmse = 0.0\nsamples = 875\nvalue = 0.0"] ;
727 -> 728 ;
729 [label="installment <= 312.2\nmse = 0.0\nsamples = 190\nvalue = 0.0"] ;
728 -> 729 ;
730 [label="mse = 0.0\nsamples = 170\nvalue = 0.0"] ;
729 -> 730 ;
731 [label="loan_amnt <= 10100.0\nmse = 0.0\nsamples = 20\nvalue = 0.0"] ;
729 -> 731 ;
732 [label="annual_inc <= 30500.0\nmse = 0.2\nsamples = 3\nvalue = 0.2"] ;
731 -> 732 ;
733 [label="annual_inc <= 29000.0\nmse = 0.2\nsamples = 2\nvalue = 0.5"] ;
732 -> 733 ;
734 [label="mse = 0.0\nsamples = 1\nvalue = 0.0"] ;
733 -> 734 ;
735 [label="mse = 0.0\nsamples = 1\nvalue = 1.0"] ;
733 -> 735 ;
736 [label="mse = 0.0\nsamples = 1\nvalue = 0.0"] ;
732 -> 736 ;
737 [label="mse = 0.0\nsamples = 17\nvalue = 0.0"] ;
731 -> 737 ;
738 [label="mse = 0.0\nsamples = 685\nvalue = 0.0"] ;
728 -> 738 ;
739 [label="installment <= 314.8\nmse = 0.0\nsamples = 536\nvalue = 0.0"] ;
727 -> 739 ;
740 [label="installment <= 281.6\nmse = 0.0\nsamples = 388\nvalue = 0.0"] ;
739 -> 740 ;
741 [label="installment <= 280.8\nmse = 0.0\nsamples = 153\nvalue = 0.0"] ;
740 -> 741 ;
742 [label="mse = 0.0\nsamples = 150\nvalue = 0.0"] ;
741 -> 742 ;
743 [label="annual_inc <= 33000.0\nmse = 0.2\nsamples = 3\nvalue = 0.3"] ;
741 -> 743 ;
744 [label="mse = 0.0\nsamples = 1\nvalue = 0.0"] ;
743 -> 744 ;
745 [label="mse = 0.2\nsamples = 2\nvalue = 0.7"] ;
743 -> 745 ;
746 [label="mse = 0.0\nsamples = 235\nvalue = 0.0"] ;
740 -> 746 ;
747 [label="installment <= 315.6\nmse = 0.0\nsamples = 148\nvalue = 0.0"] ;
739 -> 747 ;
748 [label="annual_inc <= 32587.5\nmse = 0.1\nsamples = 14\nvalue = 0.2"] ;
747 -> 748 ;
749 [label="mse = 0.0\nsamples = 5\nvalue = 0.0"] ;
748 -> 749 ;
750 [label="annual_inc <= 32929.5\nmse = 0.2\nsamples = 9\nvalue = 0.2"] ;
748 -> 750 ;
751 [label="mse = 0.0\nsamples = 1\nvalue = 1.0"] ;
750 -> 751 ;
752 [label="annual_inc <= 34000.0\nmse = 0.1\nsamples = 8\nvalue = 0.1"] ;
750 -> 752 ;
753 [label="mse = 0.0\nsamples = 3\nvalue = 0.0"] ;
752 -> 753 ;
754 [label="mse = 0.2\nsamples = 5\nvalue = 0.2"] ;
752 -> 754 ;
755 [label="sub_grade <= 14.5\nmse = 0.0\nsamples = 134\nvalue = 0.0"] ;
747 -> 755 ;
756 [label="funded_amnt <= 10550.0\nmse = 0.1\nsamples = 16\nvalue = 0.1"] ;
755 -> 756 ;
757 [label="installment <= 323.3\nmse = 0.2\nsamples = 2\nvalue = 0.5"] ;
756 -> 757 ;
758 [label="mse = 0.0\nsamples = 1\nvalue = 0.0"] ;
757 -> 758 ;
759 [label="mse = 0.0\nsamples = 1\nvalue = 1.0"] ;
757 -> 759 ;
760 [label="mse = 0.0\nsamples = 14\nvalue = 0.0"] ;
756 -> 760 ;
761 [label="mse = 0.0\nsamples = 118\nvalue = 0.0"] ;
755 -> 761 ;
762 [label="annual_inc <= 42900.0\nmse = 0.0\nsamples = 9889\nvalue = 0.0"] ;
726 -> 762 ;
763 [label="mse = 0.0\nsamples = 1283\nvalue = 0.0"] ;
762 -> 763 ;
764 [label="annual_inc <= 43069.5\nmse = 0.0\nsamples = 8606\nvalue = 0.0"] ;
762 -> 764 ;
765 [label="installment <= 253.3\nmse = 0.0\nsamples = 77\nvalue = 0.0"] ;
764 -> 765 ;
766 [label="installment <= 252.5\nmse = 0.1\nsamples = 12\nvalue = 0.1"] ;
765 -> 766 ;
767 [label="mse = 0.0\nsamples = 11\nvalue = 0.0"] ;
766 -> 767 ;
768 [label="mse = 0.0\nsamples = 1\nvalue = 1.0"] ;
766 -> 768 ;
769 [label="installment <= 314.8\nmse = 0.0\nsamples = 65\nvalue = 0.0"] ;
765 -> 769 ;
770 [label="mse = 0.0\nsamples = 44\nvalue = 0.0"] ;
769 -> 770 ;
771 [label="installment <= 315.6\nmse = 0.0\nsamples = 21\nvalue = 0.0"] ;
769 -> 771 ;
772 [label="mse = 0.2\nsamples = 2\nvalue = 0.5"] ;
771 -> 772 ;
773 [label="mse = 0.0\nsamples = 19\nvalue = 0.0"] ;
771 -> 773 ;
774 [label="annual_inc <= 51998.0\nmse = 0.0\nsamples = 8529\nvalue = 0.0"] ;
764 -> 774 ;
775 [label="annual_inc <= 44471.0\nmse = 0.0\nsamples = 1919\nvalue = 0.0"] ;
774 -> 775 ;
776 [label="annual_inc <= 44423.0\nmse = 0.0\nsamples = 134\nvalue = 0.0"] ;
775 -> 776 ;
777 [label="mse = 0.0\nsamples = 133\nvalue = 0.0"] ;
776 -> 777 ;
778 [label="mse = 0.0\nsamples = 1\nvalue = 1.0"] ;
776 -> 778 ;
779 [label="annual_inc <= 45025.0\nmse = 0.0\nsamples = 1785\nvalue = 0.0"] ;
775 -> 779 ;
780 [label="installment <= 315.6\nmse = 0.0\nsamples = 438\nvalue = 0.0"] ;
779 -> 780 ;
781 [label="mse = 0.0\nsamples = 328\nvalue = 0.0"] ;
780 -> 781 ;
782 [label="installment <= 316.2\nmse = 0.0\nsamples = 110\nvalue = 0.0"] ;
780 -> 782 ;
783 [label="mse = 0.1\nsamples = 9\nvalue = 0.1"] ;
782 -> 783 ;
784 [label="mse = 0.0\nsamples = 101\nvalue = 0.0"] ;
782 -> 784 ;
785 [label="mse = 0.0\nsamples = 1347\nvalue = 0.0"] ;
779 -> 785 ;
786 [label="annual_inc <= 52021.5\nmse = 0.0\nsamples = 6610\nvalue = 0.0"] ;
774 -> 786 ;
787 [label="grade <= 1.5\nmse = 0.0\nsamples = 234\nvalue = 0.0"] ;
786 -> 787 ;
788 [label="mse = 0.0\nsamples = 123\nvalue = 0.0"] ;
787 -> 788 ;
789 [label="installment <= 314.8\nmse = 0.0\nsamples = 111\nvalue = 0.0"] ;
787 -> 789 ;
790 [label="installment <= 265.8\nmse = 0.0\nsamples = 63\nvalue = 0.0"] ;
789 -> 790 ;
791 [label="mse = 0.0\nsamples = 30\nvalue = 0.0"] ;
790 -> 791 ;
792 [label="loan_amnt <= 8450.0\nmse = 0.1\nsamples = 33\nvalue = 0.1"] ;
790 -> 792 ;
793 [label="mse = 0.0\nsamples = 1\nvalue = 1.0"] ;
792 -> 793 ;
794 [label="loan_amnt <= 9800.0\nmse = 0.0\nsamples = 32\nvalue = 0.0"] ;
792 -> 794 ;
795 [label="mse = 0.0\nsamples = 17\nvalue = 0.0"] ;
794 -> 795 ;
796 [label="mse = 0.1\nsamples = 15\nvalue = 0.1"] ;
794 -> 796 ;
797 [label="mse = 0.0\nsamples = 48\nvalue = 0.0"] ;
789 -> 797 ;
798 [label="annual_inc <= 58996.0\nmse = 0.0\nsamples = 6376\nvalue = 0.0"] ;
786 -> 798 ;
799 [label="mse = 0.0\nsamples = 1103\nvalue = 0.0"] ;
798 -> 799 ;
800 [label="annual_inc <= 59013.0\nmse = 0.0\nsamples = 5273\nvalue = 0.0"] ;
798 -> 800 ;
801 [label="installment <= 320.0\nmse = 0.0\nsamples = 45\nvalue = 0.0"] ;
800 -> 801 ;
802 [label="mse = 0.0\nsamples = 36\nvalue = 0.0"] ;
801 -> 802 ;
803 [label="installment <= 320.4\nmse = 0.1\nsamples = 9\nvalue = 0.1"] ;
801 -> 803 ;
804 [label="mse = 0.2\nsamples = 2\nvalue = 0.5"] ;
803 -> 804 ;
805 [label="mse = 0.0\nsamples = 7\nvalue = 0.0"] ;
803 -> 805 ;
806 [label="annual_inc <= 69070.0\nmse = 0.0\nsamples = 5228\nvalue = 0.0"] ;
800 -> 806 ;
807 [label="annual_inc <= 67977.0\nmse = 0.0\nsamples = 2150\nvalue = 0.0"] ;
806 -> 807 ;
808 [label="installment <= 313.3\nmse = 0.0\nsamples = 1943\nvalue = 0.0"] ;
807 -> 808 ;
809 [label="installment <= 265.9\nmse = 0.0\nsamples = 1219\nvalue = 0.0"] ;
808 -> 809 ;
810 [label="installment <= 265.1\nmse = 0.0\nsamples = 424\nvalue = 0.0"] ;
809 -> 810 ;
811 [label="annual_inc <= 64792.0\nmse = 0.0\nsamples = 421\nvalue = 0.0"] ;
810 -> 811 ;
812 [label="mse = 0.0\nsamples = 272\nvalue = 0.0"] ;
811 -> 812 ;
813 [label="sub_grade <= 18.0\nmse = 0.0\nsamples = 149\nvalue = 0.0"] ;
811 -> 813 ;
814 [label="mse = 0.0\nsamples = 75\nvalue = 0.0"] ;
813 -> 814 ;
815 [label="installment <= 253.3\nmse = 0.0\nsamples = 74\nvalue = 0.0"] ;
813 -> 815 ;
816 [label="installment <= 251.9\nmse = 0.0\nsamples = 33\nvalue = 0.0"] ;
815 -> 816 ;
817 [label="mse = 0.0\nsamples = 28\nvalue = 0.0"] ;
816 -> 817 ;
818 [label="mse = 0.1\nsamples = 5\nvalue = 0.2"] ;
816 -> 818 ;
819 [label="mse = 0.0\nsamples = 41\nvalue = 0.0"] ;
815 -> 819 ;
820 [label="annual_inc <= 64000.0\nmse = 0.2\nsamples = 3\nvalue = 0.3"] ;
810 -> 820 ;
821 [label="mse = 0.0\nsamples = 2\nvalue = 0.0"] ;
820 -> 821 ;
822 [label="mse = 0.0\nsamples = 1\nvalue = 1.0"] ;
820 -> 822 ;
823 [label="installment <= 310.5\nmse = 0.0\nsamples = 795\nvalue = 0.0"] ;
809 -> 823 ;
824 [label="mse = 0.0\nsamples = 512\nvalue = 0.0"] ;
823 -> 824 ;
825 [label="installment <= 310.7\nmse = 0.0\nsamples = 283\nvalue = 0.0"] ;
823 -> 825 ;
826 [label="annual_inc <= 60750.0\nmse = 0.0\nsamples = 41\nvalue = 0.0"] ;
825 -> 826 ;
827 [label="annual_inc <= 59750.0\nmse = 0.0\nsamples = 21\nvalue = 0.0"] ;
826 -> 827 ;
828 [label="mse = 0.0\nsamples = 1\nvalue = 0.0"] ;
827 -> 828 ;
829 [label="mse = 0.0\nsamples = 20\nvalue = 0.0"] ;
827 -> 829 ;
830 [label="mse = 0.0\nsamples = 20\nvalue = 0.0"] ;
826 -> 830 ;
831 [label="mse = 0.0\nsamples = 242\nvalue = 0.0"] ;
825 -> 831 ;
832 [label="installment <= 313.5\nmse = 0.0\nsamples = 724\nvalue = 0.0"] ;
808 -> 832 ;
833 [label="annual_inc <= 63636.0\nmse = 0.0\nsamples = 53\nvalue = 0.0"] ;
832 -> 833 ;
834 [label="mse = 0.0\nsamples = 26\nvalue = 0.0"] ;
833 -> 834 ;
835 [label="annual_inc <= 64500.0\nmse = 0.0\nsamples = 27\nvalue = 0.0"] ;
833 -> 835 ;
836 [label="sub_grade <= 14.5\nmse = 0.2\nsamples = 4\nvalue = 0.3"] ;
835 -> 836 ;
837 [label="mse = 0.0\nsamples = 2\nvalue = 0.0"] ;
836 -> 837 ;
838 [label="mse = 0.2\nsamples = 2\nvalue = 0.7"] ;
836 -> 838 ;
839 [label="mse = 0.0\nsamples = 23\nvalue = 0.0"] ;
835 -> 839 ;
840 [label="annual_inc <= 60142.5\nmse = 0.0\nsamples = 671\nvalue = 0.0"] ;
832 -> 840 ;
841 [label="sub_grade <= 14.5\nmse = 0.0\nsamples = 241\nvalue = 0.0"] ;
840 -> 841 ;
842 [label="installment <= 341.5\nmse = 0.0\nsamples = 17\nvalue = 0.0"] ;
841 -> 842 ;
843 [label="mse = 0.0\nsamples = 9\nvalue = 0.0"] ;
842 -> 843 ;
844 [label="installment <= 341.8\nmse = 0.1\nsamples = 8\nvalue = 0.1"] ;
842 -> 844 ;
845 [label="mse = 0.0\nsamples = 1\nvalue = 1.0"] ;
844 -> 845 ;
846 [label="mse = 0.0\nsamples = 7\nvalue = 0.0"] ;
844 -> 846 ;
847 [label="installment <= 315.5\nmse = 0.0\nsamples = 224\nvalue = 0.0"] ;
841 -> 847 ;
848 [label="installment <= 314.8\nmse = 0.0\nsamples = 58\nvalue = 0.0"] ;
847 -> 848 ;
849 [label="mse = 0.0\nsamples = 45\nvalue = 0.0"] ;
848 -> 849 ;
850 [label="mse = 0.1\nsamples = 13\nvalue = 0.1"] ;
848 -> 850 ;
851 [label="mse = 0.0\nsamples = 166\nvalue = 0.0"] ;
847 -> 851 ;
852 [label="mse = 0.0\nsamples = 430\nvalue = 0.0"] ;
840 -> 852 ;
853 [label="funded_amnt <= 9650.0\nmse = 0.0\nsamples = 207\nvalue = 0.0"] ;
807 -> 853 ;
854 [label="installment <= 304.6\nmse = 0.0\nsamples = 83\nvalue = 0.0"] ;
853 -> 854 ;
855 [label="installment <= 252.2\nmse = 0.0\nsamples = 80\nvalue = 0.0"] ;
854 -> 855 ;
856 [label="annual_inc <= 68900.0\nmse = 0.0\nsamples = 19\nvalue = 0.0"] ;
855 -> 856 ;
857 [label="mse = 0.0\nsamples = 14\nvalue = 0.0"] ;
856 -> 857 ;
858 [label="sub_grade <= 18.0\nmse = 0.1\nsamples = 5\nvalue = 0.2"] ;
856 -> 858 ;
859 [label="mse = 0.0\nsamples = 3\nvalue = 0.0"] ;
858 -> 859 ;
860 [label="mse = 0.2\nsamples = 2\nvalue = 0.3"] ;
858 -> 860 ;
861 [label="mse = 0.0\nsamples = 61\nvalue = 0.0"] ;
855 -> 861 ;
862 [label="installment <= 306.2\nmse = 0.2\nsamples = 3\nvalue = 0.5"] ;
854 -> 862 ;
863 [label="mse = 0.2\nsamples = 2\nvalue = 0.7"] ;
862 -> 863 ;
864 [label="mse = 0.0\nsamples = 1\nvalue = 0.0"] ;
862 -> 864 ;
865 [label="mse = 0.0\nsamples = 124\nvalue = 0.0"] ;
853 -> 865 ;
866 [label="installment <= 275.9\nmse = 0.0\nsamples = 3078\nvalue = 0.0"] ;
806 -> 866 ;
867 [label="installment <= 275.7\nmse = 0.0\nsamples = 714\nvalue = 0.0"] ;
866 -> 867 ;
868 [label="annual_inc <= 84998.0\nmse = 0.0\nsamples = 713\nvalue = 0.0"] ;
867 -> 868 ;
869 [label="mse = 0.0\nsamples = 519\nvalue = 0.0"] ;
868 -> 869 ;
870 [label="annual_inc <= 85125.0\nmse = 0.0\nsamples = 194\nvalue = 0.0"] ;
868 -> 870 ;
871 [label="installment <= 251.9\nmse = 0.0\nsamples = 50\nvalue = 0.0"] ;
870 -> 871 ;
872 [label="sub_grade <= 18.0\nmse = 0.0\nsamples = 19\nvalue = 0.0"] ;
871 -> 872 ;
873 [label="mse = 0.0\nsamples = 14\nvalue = 0.0"] ;
872 -> 873 ;
874 [label="mse = 0.1\nsamples = 5\nvalue = 0.2"] ;
872 -> 874 ;
875 [label="mse = 0.0\nsamples = 31\nvalue = 0.0"] ;
871 -> 875 ;
876 [label="mse = 0.0\nsamples = 144\nvalue = 0.0"] ;
870 -> 876 ;
877 [label="mse = 0.0\nsamples = 1\nvalue = 1.0"] ;
867 -> 877 ;
878 [label="sub_grade <= 18.0\nmse = 0.0\nsamples = 2364\nvalue = 0.0"] ;
866 -> 878 ;
879 [label="annual_inc <= 70002.0\nmse = 0.0\nsamples = 1385\nvalue = 0.0"] ;
878 -> 879 ;
880 [label="installment <= 310.7\nmse = 0.0\nsamples = 225\nvalue = 0.0"] ;
879 -> 880 ;
881 [label="installment <= 310.5\nmse = 0.0\nsamples = 95\nvalue = 0.0"] ;
880 -> 881 ;
882 [label="mse = 0.0\nsamples = 86\nvalue = 0.0"] ;
881 -> 882 ;
883 [label="mse = 0.1\nsamples = 9\nvalue = 0.1"] ;
881 -> 883 ;
884 [label="mse = 0.0\nsamples = 130\nvalue = 0.0"] ;
880 -> 884 ;
885 [label="mse = 0.0\nsamples = 1160\nvalue = 0.0"] ;
879 -> 885 ;
886 [label="annual_inc <= 89983.0\nmse = 0.0\nsamples = 979\nvalue = 0.0"] ;
878 -> 886 ;
887 [label="installment <= 315.2\nmse = 0.0\nsamples = 893\nvalue = 0.0"] ;
886 -> 887 ;
888 [label="installment <= 314.8\nmse = 0.0\nsamples = 432\nvalue = 0.0"] ;
887 -> 888 ;
889 [label="installment <= 303.3\nmse = 0.0\nsamples = 387\nvalue = 0.0"] ;
888 -> 889 ;
890 [label="installment <= 302.3\nmse = 0.0\nsamples = 160\nvalue = 0.0"] ;
889 -> 890 ;
891 [label="mse = 0.0\nsamples = 155\nvalue = 0.0"] ;
890 -> 891 ;
892 [label="annual_inc <= 81500.0\nmse = 0.1\nsamples = 5\nvalue = 0.2"] ;
890 -> 892 ;
893 [label="annual_inc <= 77500.0\nmse = 0.2\nsamples = 2\nvalue = 0.5"] ;
892 -> 893 ;
894 [label="mse = 0.0\nsamples = 1\nvalue = 0.0"] ;
893 -> 894 ;
895 [label="mse = 0.0\nsamples = 1\nvalue = 1.0"] ;
893 -> 895 ;
896 [label="mse = 0.0\nsamples = 3\nvalue = 0.0"] ;
892 -> 896 ;
897 [label="mse = 0.0\nsamples = 227\nvalue = 0.0"] ;
889 -> 897 ;
898 [label="annual_inc <= 74000.0\nmse = 0.0\nsamples = 45\nvalue = 0.0"] ;
888 -> 898 ;
899 [label="annual_inc <= 72500.0\nmse = 0.0\nsamples = 14\nvalue = 0.0"] ;
898 -> 899 ;
900 [label="mse = 0.0\nsamples = 11\nvalue = 0.0"] ;
899 -> 900 ;
901 [label="mse = 0.2\nsamples = 3\nvalue = 0.2"] ;
899 -> 901 ;
902 [label="mse = 0.0\nsamples = 31\nvalue = 0.0"] ;
898 -> 902 ;
903 [label="mse = 0.0\nsamples = 461\nvalue = 0.0"] ;
887 -> 903 ;
904 [label="installment <= 320.0\nmse = 0.0\nsamples = 86\nvalue = 0.0"] ;
886 -> 904 ;
905 [label="mse = 0.0\nsamples = 54\nvalue = 0.0"] ;
904 -> 905 ;
906 [label="installment <= 320.4\nmse = 0.0\nsamples = 32\nvalue = 0.0"] ;
904 -> 906 ;
907 [label="mse = 0.0\nsamples = 20\nvalue = 0.0"] ;
906 -> 907 ;
908 [label="mse = 0.0\nsamples = 12\nvalue = 0.0"] ;
906 -> 908 ;
909 [label="installment <= 240.0\nmse = 0.0\nsamples = 7945\nvalue = 0.0"] ;
713 -> 909 ;
910 [label="annual_inc <= 72500.0\nmse = 0.0\nsamples = 48\nvalue = 0.0"] ;
909 -> 910 ;
911 [label="mse = 0.0\nsamples = 35\nvalue = 0.0"] ;
910 -> 911 ;
912 [label="annual_inc <= 73500.0\nmse = 0.1\nsamples = 13\nvalue = 0.1"] ;
910 -> 912 ;
913 [label="installment <= 239.7\nmse = 0.2\nsamples = 2\nvalue = 0.6"] ;
912 -> 913 ;
914 [label="mse = 0.0\nsamples = 1\nvalue = 0.0"] ;
913 -> 914 ;
915 [label="mse = 0.0\nsamples = 1\nvalue = 1.0"] ;
913 -> 915 ;
916 [label="mse = 0.0\nsamples = 11\nvalue = 0.0"] ;
912 -> 916 ;
917 [label="annual_inc <= 84998.0\nmse = 0.0\nsamples = 7897\nvalue = 0.0"] ;
909 -> 917 ;
918 [label="annual_inc <= 63406.0\nmse = 0.0\nsamples = 7149\nvalue = 0.0"] ;
917 -> 918 ;
919 [label="annual_inc <= 63371.9\nmse = 0.0\nsamples = 4214\nvalue = 0.0"] ;
918 -> 919 ;
920 [label="loan_amnt <= 14987.5\nmse = 0.0\nsamples = 4213\nvalue = 0.0"] ;
919 -> 920 ;
921 [label="sub_grade <= 14.5\nmse = 0.0\nsamples = 2878\nvalue = 0.0"] ;
920 -> 921 ;
922 [label="annual_inc <= 47250.0\nmse = 0.0\nsamples = 771\nvalue = 0.0"] ;
921 -> 922 ;
923 [label="annual_inc <= 42820.0\nmse = 0.0\nsamples = 308\nvalue = 0.0"] ;
922 -> 923 ;
924 [label="annual_inc <= 40900.0\nmse = 0.0\nsamples = 210\nvalue = 0.0"] ;
923 -> 924 ;
925 [label="mse = 0.0\nsamples = 172\nvalue = 0.0"] ;
924 -> 925 ;
926 [label="annual_inc <= 41080.0\nmse = 0.0\nsamples = 38\nvalue = 0.0"] ;
924 -> 926 ;
927 [label="loan_amnt <= 12750.0\nmse = 0.1\nsamples = 5\nvalue = 0.1"] ;
926 -> 927 ;
928 [label="mse = 0.2\nsamples = 2\nvalue = 0.5"] ;
927 -> 928 ;
929 [label="mse = 0.0\nsamples = 3\nvalue = 0.0"] ;
927 -> 929 ;
930 [label="mse = 0.0\nsamples = 33\nvalue = 0.0"] ;
926 -> 930 ;
931 [label="annual_inc <= 43016.0\nmse = 0.0\nsamples = 98\nvalue = 0.0"] ;
923 -> 931 ;
932 [label="installment <= 389.8\nmse = 0.2\nsamples = 5\nvalue = 0.4"] ;
931 -> 932 ;
933 [label="mse = 0.0\nsamples = 4\nvalue = 0.0"] ;
932 -> 933 ;
934 [label="mse = 0.0\nsamples = 1\nvalue = 1.0"] ;
932 -> 934 ;
935 [label="annual_inc <= 46990.0\nmse = 0.0\nsamples = 93\nvalue = 0.0"] ;
931 -> 935 ;
936 [label="mse = 0.0\nsamples = 85\nvalue = 0.0"] ;
935 -> 936 ;
937 [label="installment <= 374.6\nmse = 0.1\nsamples = 8\nvalue = 0.1"] ;
935 -> 937 ;
938 [label="installment <= 372.9\nmse = 0.1\nsamples = 5\nvalue = 0.2"] ;
937 -> 938 ;
939 [label="mse = 0.0\nsamples = 3\nvalue = 0.0"] ;
938 -> 939 ;
940 [label="mse = 0.2\nsamples = 2\nvalue = 0.3"] ;
938 -> 940 ;
941 [label="mse = 0.0\nsamples = 3\nvalue = 0.0"] ;
937 -> 941 ;
942 [label="mse = 0.0\nsamples = 463\nvalue = 0.0"] ;
922 -> 942 ;
943 [label="installment <= 376.2\nmse = 0.0\nsamples = 2107\nvalue = 0.0"] ;
921 -> 943 ;
944 [label="installment <= 375.9\nmse = 0.0\nsamples = 728\nvalue = 0.0"] ;
943 -> 944 ;
945 [label="mse = 0.0\nsamples = 645\nvalue = 0.0"] ;
944 -> 945 ;
946 [label="annual_inc <= 52500.0\nmse = 0.0\nsamples = 83\nvalue = 0.0"] ;
944 -> 946 ;
947 [label="annual_inc <= 51500.0\nmse = 0.0\nsamples = 40\nvalue = 0.0"] ;
946 -> 947 ;
948 [label="mse = 0.0\nsamples = 34\nvalue = 0.0"] ;
947 -> 948 ;
949 [label="mse = 0.2\nsamples = 6\nvalue = 0.2"] ;
947 -> 949 ;
950 [label="mse = 0.0\nsamples = 43\nvalue = 0.0"] ;
946 -> 950 ;
951 [label="mse = 0.0\nsamples = 1379\nvalue = 0.0"] ;
943 -> 951 ;
952 [label="installment <= 307.7\nmse = 0.0\nsamples = 1335\nvalue = 0.0"] ;
920 -> 952 ;
953 [label="installment <= 306.4\nmse = 0.0\nsamples = 76\nvalue = 0.0"] ;
952 -> 953 ;
954 [label="mse = 0.0\nsamples = 68\nvalue = 0.0"] ;
953 -> 954 ;
955 [label="annual_inc <= 38000.0\nmse = 0.2\nsamples = 8\nvalue = 0.3"] ;
953 -> 955 ;
956 [label="mse = 0.0\nsamples = 1\nvalue = 1.0"] ;
955 -> 956 ;
957 [label="annual_inc <= 48500.0\nmse = 0.2\nsamples = 7\nvalue = 0.2"] ;
955 -> 957 ;
958 [label="annual_inc <= 43000.0\nmse = 0.2\nsamples = 3\nvalue = 0.4"] ;
957 -> 958 ;
959 [label="mse = 0.0\nsamples = 1\nvalue = 0.0"] ;
958 -> 959 ;
960 [label="mse = 0.2\nsamples = 2\nvalue = 0.5"] ;
958 -> 960 ;
961 [label="mse = 0.0\nsamples = 4\nvalue = 0.0"] ;
957 -> 961 ;
962 [label="annual_inc <= 51950.0\nmse = 0.0\nsamples = 1259\nvalue = 0.0"] ;
952 -> 962 ;
963 [label="mse = 0.0\nsamples = 696\nvalue = 0.0"] ;
962 -> 963 ;
964 [label="installment <= 469.9\nmse = 0.0\nsamples = 563\nvalue = 0.0"] ;
962 -> 964 ;
965 [label="annual_inc <= 55500.0\nmse = 0.0\nsamples = 323\nvalue = 0.0"] ;
964 -> 965 ;
966 [label="sub_grade <= 14.5\nmse = 0.0\nsamples = 103\nvalue = 0.0"] ;
965 -> 966 ;
967 [label="installment <= 465.7\nmse = 0.0\nsamples = 43\nvalue = 0.0"] ;
966 -> 967 ;
968 [label="mse = 0.0\nsamples = 29\nvalue = 0.0"] ;
967 -> 968 ;
969 [label="installment <= 466.1\nmse = 0.0\nsamples = 14\nvalue = 0.0"] ;
967 -> 969 ;
970 [label="annual_inc <= 54022.5\nmse = 0.1\nsamples = 7\nvalue = 0.1"] ;
969 -> 970 ;
971 [label="mse = 0.0\nsamples = 2\nvalue = 0.0"] ;
970 -> 971 ;
972 [label="mse = 0.1\nsamples = 5\nvalue = 0.1"] ;
970 -> 972 ;
973 [label="mse = 0.0\nsamples = 7\nvalue = 0.0"] ;
969 -> 973 ;
974 [label="mse = 0.0\nsamples = 60\nvalue = 0.0"] ;
966 -> 974 ;
975 [label="mse = 0.0\nsamples = 220\nvalue = 0.0"] ;
965 -> 975 ;
976 [label="installment <= 470.3\nmse = 0.0\nsamples = 240\nvalue = 0.0"] ;
964 -> 976 ;
977 [label="annual_inc <= 59000.0\nmse = 0.1\nsamples = 33\nvalue = 0.1"] ;
976 -> 977 ;
978 [label="mse = 0.0\nsamples = 15\nvalue = 0.0"] ;
977 -> 978 ;
979 [label="sub_grade <= 14.5\nmse = 0.1\nsamples = 18\nvalue = 0.1"] ;
977 -> 979 ;
980 [label="mse = 0.0\nsamples = 7\nvalue = 0.0"] ;
979 -> 980 ;
981 [label="annual_inc <= 60387.5\nmse = 0.2\nsamples = 11\nvalue = 0.2"] ;
979 -> 981 ;
982 [label="mse = 0.2\nsamples = 8\nvalue = 0.3"] ;
981 -> 982 ;
983 [label="mse = 0.0\nsamples = 3\nvalue = 0.0"] ;
981 -> 983 ;
984 [label="annual_inc <= 52275.0\nmse = 0.0\nsamples = 207\nvalue = 0.0"] ;
976 -> 984 ;
985 [label="installment <= 473.4\nmse = 0.1\nsamples = 10\nvalue = 0.1"] ;
984 -> 985 ;
986 [label="installment <= 472.2\nmse = 0.2\nsamples = 5\nvalue = 0.3"] ;
985 -> 986 ;
987 [label="mse = 0.0\nsamples = 2\nvalue = 0.0"] ;
986 -> 987 ;
988 [label="mse = 0.2\nsamples = 3\nvalue = 0.4"] ;
986 -> 988 ;
989 [label="mse = 0.0\nsamples = 5\nvalue = 0.0"] ;
985 -> 989 ;
990 [label="mse = 0.0\nsamples = 197\nvalue = 0.0"] ;
984 -> 990 ;
991 [label="mse = 0.0\nsamples = 1\nvalue = 1.0"] ;
919 -> 991 ;
992 [label="installment <= 249.4\nmse = 0.0\nsamples = 2935\nvalue = 0.0"] ;
918 -> 992 ;
993 [label="installment <= 248.4\nmse = 0.0\nsamples = 61\nvalue = 0.0"] ;
992 -> 993 ;
994 [label="mse = 0.0\nsamples = 48\nvalue = 0.0"] ;
993 -> 994 ;
995 [label="annual_inc <= 70500.0\nmse = 0.0\nsamples = 13\nvalue = 0.1"] ;
993 -> 995 ;
996 [label="mse = 0.0\nsamples = 7\nvalue = 0.0"] ;
995 -> 996 ;
997 [label="annual_inc <= 71167.5\nmse = 0.1\nsamples = 6\nvalue = 0.1"] ;
995 -> 997 ;
998 [label="mse = 0.0\nsamples = 1\nvalue = 1.0"] ;
997 -> 998 ;
999 [label="mse = 0.0\nsamples = 5\nvalue = 0.0"] ;
997 -> 999 ;
1000 [label="annual_inc <= 77438.0\nmse = 0.0\nsamples = 2874\nvalue = 0.0"] ;
992 -> 1000 ;
1001 [label="installment <= 473.4\nmse = 0.0\nsamples = 2086\nvalue = 0.0"] ;
1000 -> 1001 ;
1002 [label="mse = 0.0\nsamples = 1903\nvalue = 0.0"] ;
1001 -> 1002 ;
1003 [label="installment <= 474.3\nmse = 0.0\nsamples = 183\nvalue = 0.0"] ;
1001 -> 1003 ;
1004 [label="annual_inc <= 69000.0\nmse = 0.0\nsamples = 18\nvalue = 0.0"] ;
1003 -> 1004 ;
1005 [label="annual_inc <= 67500.0\nmse = 0.1\nsamples = 6\nvalue = 0.1"] ;
1004 -> 1005 ;
1006 [label="mse = 0.0\nsamples = 5\nvalue = 0.0"] ;
1005 -> 1006 ;
1007 [label="mse = 0.0\nsamples = 1\nvalue = 1.0"] ;
1005 -> 1007 ;
1008 [label="mse = 0.0\nsamples = 12\nvalue = 0.0"] ;
1004 -> 1008 ;
1009 [label="mse = 0.0\nsamples = 165\nvalue = 0.0"] ;
1003 -> 1009 ;
1010 [label="annual_inc <= 77594.0\nmse = 0.0\nsamples = 788\nvalue = 0.0"] ;
1000 -> 1010 ;
1011 [label="installment <= 426.9\nmse = 0.1\nsamples = 5\nvalue = 0.2"] ;
1010 -> 1011 ;
1012 [label="installment <= 401.6\nmse = 0.2\nsamples = 2\nvalue = 0.5"] ;
1011 -> 1012 ;
1013 [label="mse = 0.0\nsamples = 1\nvalue = 0.0"] ;
1012 -> 1013 ;
1014 [label="mse = 0.0\nsamples = 1\nvalue = 1.0"] ;
1012 -> 1014 ;
1015 [label="mse = 0.0\nsamples = 3\nvalue = 0.0"] ;
1011 -> 1015 ;
1016 [label="annual_inc <= 79989.0\nmse = 0.0\nsamples = 783\nvalue = 0.0"] ;
1010 -> 1016 ;
1017 [label="annual_inc <= 79943.0\nmse = 0.0\nsamples = 122\nvalue = 0.0"] ;
1016 -> 1017 ;
1018 [label="funded_amnt <= 12250.0\nmse = 0.0\nsamples = 121\nvalue = 0.0"] ;
1017 -> 1018 ;
1019 [label="annual_inc <= 78009.9\nmse = 0.0\nsamples = 33\nvalue = 0.0"] ;
1018 -> 1019 ;
1020 [label="installment <= 376.7\nmse = 0.0\nsamples = 16\nvalue = 0.0"] ;
1019 -> 1020 ;
1021 [label="mse = 0.0\nsamples = 6\nvalue = 0.0"] ;
1020 -> 1021 ;
1022 [label="installment <= 379.5\nmse = 0.0\nsamples = 10\nvalue = 0.1"] ;
1020 -> 1022 ;
1023 [label="mse = 0.1\nsamples = 5\nvalue = 0.1"] ;
1022 -> 1023 ;
1024 [label="mse = 0.0\nsamples = 5\nvalue = 0.0"] ;
1022 -> 1024 ;
1025 [label="mse = 0.0\nsamples = 17\nvalue = 0.0"] ;
1019 -> 1025 ;
1026 [label="mse = 0.0\nsamples = 88\nvalue = 0.0"] ;
1018 -> 1026 ;
1027 [label="mse = 0.0\nsamples = 1\nvalue = 1.0"] ;
1017 -> 1027 ;
1028 [label="mse = 0.0\nsamples = 661\nvalue = 0.0"] ;
1016 -> 1028 ;
1029 [label="installment <= 283.4\nmse = 0.0\nsamples = 748\nvalue = 0.0"] ;
917 -> 1029 ;
1030 [label="installment <= 283.1\nmse = 0.0\nsamples = 53\nvalue = 0.0"] ;
1029 -> 1030 ;
1031 [label="mse = 0.0\nsamples = 50\nvalue = 0.0"] ;
1030 -> 1031 ;
1032 [label="annual_inc <= 87500.0\nmse = 0.2\nsamples = 3\nvalue = 0.4"] ;
1030 -> 1032 ;
1033 [label="mse = 0.2\nsamples = 2\nvalue = 0.5"] ;
1032 -> 1033 ;
1034 [label="mse = 0.0\nsamples = 1\nvalue = 0.0"] ;
1032 -> 1034 ;
1035 [label="loan_amnt <= 13012.5\nmse = 0.0\nsamples = 695\nvalue = 0.0"] ;
1029 -> 1035 ;
1036 [label="installment <= 411.5\nmse = 0.0\nsamples = 272\nvalue = 0.0"] ;
1035 -> 1036 ;
1037 [label="installment <= 376.2\nmse = 0.0\nsamples = 261\nvalue = 0.0"] ;
1036 -> 1037 ;
1038 [label="installment <= 375.9\nmse = 0.0\nsamples = 100\nvalue = 0.0"] ;
1037 -> 1038 ;
1039 [label="mse = 0.0\nsamples = 76\nvalue = 0.0"] ;
1038 -> 1039 ;
1040 [label="annual_inc <= 87500.0\nmse = 0.1\nsamples = 24\nvalue = 0.1"] ;
1038 -> 1040 ;
1041 [label="annual_inc <= 86500.0\nmse = 0.2\nsamples = 12\nvalue = 0.2"] ;
1040 -> 1041 ;
1042 [label="mse = 0.0\nsamples = 11\nvalue = 0.0"] ;
1041 -> 1042 ;
1043 [label="mse = 0.0\nsamples = 1\nvalue = 1.0"] ;
1041 -> 1043 ;
1044 [label="mse = 0.0\nsamples = 12\nvalue = 0.0"] ;
1040 -> 1044 ;
1045 [label="mse = 0.0\nsamples = 161\nvalue = 0.0"] ;
1037 -> 1045 ;
1046 [label="installment <= 414.7\nmse = 0.1\nsamples = 11\nvalue = 0.2"] ;
1036 -> 1046 ;
1047 [label="annual_inc <= 86500.0\nmse = 0.2\nsamples = 2\nvalue = 0.7"] ;
1046 -> 1047 ;
1048 [label="mse = 0.0\nsamples = 1\nvalue = 0.0"] ;
1047 -> 1048 ;
1049 [label="mse = 0.0\nsamples = 1\nvalue = 1.0"] ;
1047 -> 1049 ;
1050 [label="mse = 0.0\nsamples = 9\nvalue = 0.0"] ;
1046 -> 1050 ;
1051 [label="mse = 0.0\nsamples = 423\nvalue = 0.0"] ;
1035 -> 1051 ;
1052 [label="annual_inc <= 89800.0\nmse = 0.0\nsamples = 1755\nvalue = 0.0"] ;
712 -> 1052 ;
1053 [label="mse = 0.0\nsamples = 1673\nvalue = 0.0"] ;
1052 -> 1053 ;
1054 [label="sub_grade <= 14.5\nmse = 0.0\nsamples = 82\nvalue = 0.0"] ;
1052 -> 1054 ;
1055 [label="installment <= 497.5\nmse = 0.0\nsamples = 15\nvalue = 0.0"] ;
1054 -> 1055 ;
1056 [label="mse = 0.0\nsamples = 13\nvalue = 0.0"] ;
1055 -> 1056 ;
1057 [label="mse = 0.2\nsamples = 2\nvalue = 0.3"] ;
1055 -> 1057 ;
1058 [label="mse = 0.0\nsamples = 67\nvalue = 0.0"] ;
1054 -> 1058 ;
1059 [label="installment <= 509.1\nmse = 0.0\nsamples = 1750\nvalue = 0.0"] ;
569 -> 1059 ;
1060 [label="annual_inc <= 65500.0\nmse = 0.1\nsamples = 32\nvalue = 0.1"] ;
1059 -> 1060 ;
1061 [label="annual_inc <= 64000.0\nmse = 0.1\nsamples = 10\nvalue = 0.2"] ;
1060 -> 1061 ;
1062 [label="mse = 0.0\nsamples = 8\nvalue = 0.0"] ;
1061 -> 1062 ;
1063 [label="mse = 0.2\nsamples = 2\nvalue = 0.7"] ;
1061 -> 1063 ;
1064 [label="annual_inc <= 87500.0\nmse = 0.0\nsamples = 22\nvalue = 0.0"] ;
1060 -> 1064 ;
1065 [label="mse = 0.0\nsamples = 19\nvalue = 0.0"] ;
1064 -> 1065 ;
1066 [label="annual_inc <= 89500.0\nmse = 0.2\nsamples = 3\nvalue = 0.2"] ;
1064 -> 1066 ;
1067 [label="mse = 0.0\nsamples = 1\nvalue = 1.0"] ;
1066 -> 1067 ;
1068 [label="mse = 0.0\nsamples = 2\nvalue = 0.0"] ;
1066 -> 1068 ;
1069 [label="annual_inc <= 70951.5\nmse = 0.0\nsamples = 1718\nvalue = 0.0"] ;
1059 -> 1069 ;
1070 [label="installment <= 540.7\nmse = 0.0\nsamples = 1061\nvalue = 0.0"] ;
1069 -> 1070 ;
1071 [label="installment <= 539.7\nmse = 0.0\nsamples = 359\nvalue = 0.0"] ;
1070 -> 1071 ;
1072 [label="sub_grade <= 14.5\nmse = 0.0\nsamples = 355\nvalue = 0.0"] ;
1071 -> 1072 ;
1073 [label="installment <= 527.8\nmse = 0.0\nsamples = 75\nvalue = 0.0"] ;
1072 -> 1073 ;
1074 [label="mse = 0.0\nsamples = 52\nvalue = 0.0"] ;
1073 -> 1074 ;
1075 [label="installment <= 528.2\nmse = 0.0\nsamples = 23\nvalue = 0.0"] ;
1073 -> 1075 ;
1076 [label="annual_inc <= 54000.0\nmse = 0.1\nsamples = 7\nvalue = 0.2"] ;
1075 -> 1076 ;
1077 [label="mse = 0.0\nsamples = 4\nvalue = 0.0"] ;
1076 -> 1077 ;
1078 [label="annual_inc <= 61000.0\nmse = 0.2\nsamples = 3\nvalue = 0.3"] ;
1076 -> 1078 ;
1079 [label="mse = 0.0\nsamples = 1\nvalue = 1.0"] ;
1078 -> 1079 ;
1080 [label="mse = 0.0\nsamples = 2\nvalue = 0.0"] ;
1078 -> 1080 ;
1081 [label="mse = 0.0\nsamples = 16\nvalue = 0.0"] ;
1075 -> 1081 ;
1082 [label="mse = 0.0\nsamples = 280\nvalue = 0.0"] ;
1072 -> 1082 ;
1083 [label="annual_inc <= 56000.0\nmse = 0.2\nsamples = 4\nvalue = 0.2"] ;
1071 -> 1083 ;
1084 [label="mse = 0.2\nsamples = 2\nvalue = 0.5"] ;
1083 -> 1084 ;
1085 [label="mse = 0.0\nsamples = 2\nvalue = 0.0"] ;
1083 -> 1085 ;
1086 [label="mse = 0.0\nsamples = 702\nvalue = 0.0"] ;
1070 -> 1086 ;
1087 [label="annual_inc <= 71020.0\nmse = 0.0\nsamples = 657\nvalue = 0.0"] ;
1069 -> 1087 ;
1088 [label="funded_amnt <= 18600.0\nmse = 0.1\nsamples = 5\nvalue = 0.2"] ;
1087 -> 1088 ;
1089 [label="mse = 0.0\nsamples = 4\nvalue = 0.0"] ;
1088 -> 1089 ;
1090 [label="mse = 0.0\nsamples = 1\nvalue = 1.0"] ;
1088 -> 1090 ;
1091 [label="annual_inc <= 80002.0\nmse = 0.0\nsamples = 652\nvalue = 0.0"] ;
1087 -> 1091 ;
1092 [label="annual_inc <= 76922.0\nmse = 0.0\nsamples = 360\nvalue = 0.0"] ;
1091 -> 1092 ;
1093 [label="installment <= 576.1\nmse = 0.0\nsamples = 206\nvalue = 0.0"] ;
1092 -> 1093 ;
1094 [label="mse = 0.0\nsamples = 160\nvalue = 0.0"] ;
1093 -> 1094 ;
1095 [label="installment <= 576.7\nmse = 0.0\nsamples = 46\nvalue = 0.0"] ;
1093 -> 1095 ;
1096 [label="annual_inc <= 74000.0\nmse = 0.1\nsamples = 9\nvalue = 0.1"] ;
1095 -> 1096 ;
1097 [label="annual_inc <= 72200.0\nmse = 0.2\nsamples = 4\nvalue = 0.2"] ;
1096 -> 1097 ;
1098 [label="mse = 0.0\nsamples = 2\nvalue = 0.0"] ;
1097 -> 1098 ;
1099 [label="mse = 0.2\nsamples = 2\nvalue = 0.4"] ;
1097 -> 1099 ;
1100 [label="mse = 0.0\nsamples = 5\nvalue = 0.0"] ;
1096 -> 1100 ;
1101 [label="mse = 0.0\nsamples = 37\nvalue = 0.0"] ;
1095 -> 1101 ;
1102 [label="annual_inc <= 77230.3\nmse = 0.0\nsamples = 154\nvalue = 0.0"] ;
1092 -> 1102 ;
1103 [label="installment <= 550.1\nmse = 0.1\nsamples = 7\nvalue = 0.2"] ;
1102 -> 1103 ;
1104 [label="mse = 0.0\nsamples = 3\nvalue = 0.0"] ;
1103 -> 1104 ;
1105 [label="installment <= 571.0\nmse = 0.2\nsamples = 4\nvalue = 0.3"] ;
1103 -> 1105 ;
1106 [label="mse = 0.0\nsamples = 1\nvalue = 1.0"] ;
1105 -> 1106 ;
1107 [label="mse = 0.0\nsamples = 3\nvalue = 0.0"] ;
1105 -> 1107 ;
1108 [label="installment <= 533.6\nmse = 0.0\nsamples = 147\nvalue = 0.0"] ;
1102 -> 1108 ;
1109 [label="installment <= 532.6\nmse = 0.1\nsamples = 39\nvalue = 0.1"] ;
1108 -> 1109 ;
1110 [label="installment <= 528.6\nmse = 0.0\nsamples = 36\nvalue = 0.0"] ;
1109 -> 1110 ;
1111 [label="mse = 0.0\nsamples = 28\nvalue = 0.0"] ;
1110 -> 1111 ;
1112 [label="installment <= 529.9\nmse = 0.1\nsamples = 8\nvalue = 0.1"] ;
1110 -> 1112 ;
1113 [label="mse = 0.0\nsamples = 1\nvalue = 1.0"] ;
1112 -> 1113 ;
1114 [label="mse = 0.0\nsamples = 7\nvalue = 0.0"] ;
1112 -> 1114 ;
1115 [label="sub_grade <= 14.5\nmse = 0.2\nsamples = 3\nvalue = 0.2"] ;
1109 -> 1115 ;
1116 [label="mse = 0.0\nsamples = 1\nvalue = 0.0"] ;
1115 -> 1116 ;
1117 [label="mse = 0.2\nsamples = 2\nvalue = 0.3"] ;
1115 -> 1117 ;
1118 [label="mse = 0.0\nsamples = 108\nvalue = 0.0"] ;
1108 -> 1118 ;
1119 [label="sub_grade <= 14.5\nmse = 0.0\nsamples = 292\nvalue = 0.0"] ;
1091 -> 1119 ;
1120 [label="loan_amnt <= 17112.5\nmse = 0.0\nsamples = 68\nvalue = 0.0"] ;
1119 -> 1120 ;
1121 [label="installment <= 530.7\nmse = 0.0\nsamples = 24\nvalue = 0.0"] ;
1120 -> 1121 ;
1122 [label="mse = 0.0\nsamples = 23\nvalue = 0.0"] ;
1121 -> 1122 ;
1123 [label="mse = 0.0\nsamples = 1\nvalue = 1.0"] ;
1121 -> 1123 ;
1124 [label="mse = 0.0\nsamples = 44\nvalue = 0.0"] ;
1120 -> 1124 ;
1125 [label="mse = 0.0\nsamples = 224\nvalue = 0.0"] ;
1119 -> 1125 ;
1126 [label="sub_grade <= 14.5\nmse = 0.0\nsamples = 105\nvalue = 0.0"] ;
398 -> 1126 ;
1127 [label="installment <= 450.1\nmse = 0.1\nsamples = 24\nvalue = 0.1"] ;
1126 -> 1127 ;
1128 [label="installment <= 405.4\nmse = 0.1\nsamples = 15\nvalue = 0.1"] ;
1127 -> 1128 ;
1129 [label="mse = 0.0\nsamples = 13\nvalue = 0.0"] ;
1128 -> 1129 ;
1130 [label="mse = 0.2\nsamples = 2\nvalue = 0.6"] ;
1128 -> 1130 ;
1131 [label="mse = 0.0\nsamples = 9\nvalue = 0.0"] ;
1127 -> 1131 ;
1132 [label="mse = 0.0\nsamples = 81\nvalue = 0.0"] ;
1126 -> 1132 ;
1133 [label="installment <= 78.0\nmse = 0.0\nsamples = 33261\nvalue = 0.0"] ;
397 -> 1133 ;
1134 [label="installment <= 78.0\nmse = 0.0\nsamples = 1534\nvalue = 0.0"] ;
1133 -> 1134 ;
1135 [label="installment <= 49.1\nmse = 0.0\nsamples = 1506\nvalue = 0.0"] ;
1134 -> 1135 ;
1136 [label="mse = 0.0\nsamples = 599\nvalue = 0.0"] ;
1135 -> 1136 ;
1137 [label="installment <= 49.7\nmse = 0.0\nsamples = 907\nvalue = 0.0"] ;
1135 -> 1137 ;
1138 [label="annual_inc <= 41000.0\nmse = 0.1\nsamples = 23\nvalue = 0.1"] ;
1137 -> 1138 ;
1139 [label="annual_inc <= 39200.0\nmse = 0.1\nsamples = 9\nvalue = 0.1"] ;
1138 -> 1139 ;
1140 [label="mse = 0.0\nsamples = 6\nvalue = 0.0"] ;
1139 -> 1140 ;
1141 [label="mse = 0.2\nsamples = 3\nvalue = 0.3"] ;
1139 -> 1141 ;
1142 [label="mse = 0.0\nsamples = 14\nvalue = 0.0"] ;
1138 -> 1142 ;
1143 [label="annual_inc <= 21300.0\nmse = 0.0\nsamples = 884\nvalue = 0.0"] ;
1137 -> 1143 ;
1144 [label="annual_inc <= 20500.0\nmse = 0.0\nsamples = 68\nvalue = 0.0"] ;
1143 -> 1144 ;
1145 [label="sub_grade <= 22.5\nmse = 0.0\nsamples = 63\nvalue = 0.0"] ;
1144 -> 1145 ;
1146 [label="installment <= 64.8\nmse = 0.0\nsamples = 31\nvalue = 0.0"] ;
1145 -> 1146 ;
1147 [label="mse = 0.0\nsamples = 17\nvalue = 0.0"] ;
1146 -> 1147 ;
1148 [label="installment <= 68.0\nmse = 0.0\nsamples = 14\nvalue = 0.0"] ;
1146 -> 1148 ;
1149 [label="annual_inc <= 17398.0\nmse = 0.1\nsamples = 5\nvalue = 0.1"] ;
1148 -> 1149 ;
1150 [label="annual_inc <= 16500.0\nmse = 0.2\nsamples = 3\nvalue = 0.2"] ;
1149 -> 1150 ;
1151 [label="mse = 0.0\nsamples = 1\nvalue = 0.0"] ;
1150 -> 1151 ;
1152 [label="mse = 0.2\nsamples = 2\nvalue = 0.3"] ;
1150 -> 1152 ;
1153 [label="mse = 0.0\nsamples = 2\nvalue = 0.0"] ;
1149 -> 1153 ;
1154 [label="mse = 0.0\nsamples = 9\nvalue = 0.0"] ;
1148 -> 1154 ;
1155 [label="mse = 0.0\nsamples = 32\nvalue = 0.0"] ;
1145 -> 1155 ;
1156 [label="installment <= 63.9\nmse = 0.2\nsamples = 5\nvalue = 0.3"] ;
1144 -> 1156 ;
1157 [label="mse = 0.0\nsamples = 1\nvalue = 1.0"] ;
1156 -> 1157 ;
1158 [label="mse = 0.0\nsamples = 4\nvalue = 0.0"] ;
1156 -> 1158 ;
1159 [label="annual_inc <= 47750.0\nmse = 0.0\nsamples = 816\nvalue = 0.0"] ;
1143 -> 1159 ;
1160 [label="mse = 0.0\nsamples = 419\nvalue = 0.0"] ;
1159 -> 1160 ;
1161 [label="annual_inc <= 48250.0\nmse = 0.0\nsamples = 397\nvalue = 0.0"] ;
1159 -> 1161 ;
1162 [label="installment <= 64.0\nmse = 0.1\nsamples = 17\nvalue = 0.1"] ;
1161 -> 1162 ;
1163 [label="installment <= 61.1\nmse = 0.2\nsamples = 5\nvalue = 0.3"] ;
1162 -> 1163 ;
1164 [label="mse = 0.0\nsamples = 4\nvalue = 0.0"] ;
1163 -> 1164 ;
1165 [label="mse = 0.0\nsamples = 1\nvalue = 1.0"] ;
1163 -> 1165 ;
1166 [label="mse = 0.0\nsamples = 12\nvalue = 0.0"] ;
1162 -> 1166 ;
1167 [label="installment <= 64.8\nmse = 0.0\nsamples = 380\nvalue = 0.0"] ;
1161 -> 1167 ;
1168 [label="mse = 0.0\nsamples = 158\nvalue = 0.0"] ;
1167 -> 1168 ;
1169 [label="annual_inc <= 89857.0\nmse = 0.0\nsamples = 222\nvalue = 0.0"] ;
1167 -> 1169 ;
1170 [label="annual_inc <= 68250.0\nmse = 0.0\nsamples = 216\nvalue = 0.0"] ;
1169 -> 1170 ;
1171 [label="annual_inc <= 67500.0\nmse = 0.0\nsamples = 132\nvalue = 0.0"] ;
1170 -> 1171 ;
1172 [label="installment <= 65.0\nmse = 0.0\nsamples = 128\nvalue = 0.0"] ;
1171 -> 1172 ;
1173 [label="sub_grade <= 22.5\nmse = 0.0\nsamples = 48\nvalue = 0.0"] ;
1172 -> 1173 ;
1174 [label="annual_inc <= 56580.0\nmse = 0.1\nsamples = 13\nvalue = 0.1"] ;
1173 -> 1174 ;
1175 [label="annual_inc <= 53180.0\nmse = 0.2\nsamples = 6\nvalue = 0.2"] ;
1174 -> 1175 ;
1176 [label="mse = 0.0\nsamples = 5\nvalue = 0.0"] ;
1175 -> 1176 ;
1177 [label="mse = 0.0\nsamples = 1\nvalue = 1.0"] ;
1175 -> 1177 ;
1178 [label="mse = 0.0\nsamples = 7\nvalue = 0.0"] ;
1174 -> 1178 ;
1179 [label="mse = 0.0\nsamples = 35\nvalue = 0.0"] ;
1173 -> 1179 ;
1180 [label="mse = 0.0\nsamples = 80\nvalue = 0.0"] ;
1172 -> 1180 ;
1181 [label="funded_amnt <= 2100.0\nmse = 0.2\nsamples = 4\nvalue = 0.3"] ;
1171 -> 1181 ;
1182 [label="mse = 0.0\nsamples = 3\nvalue = 0.0"] ;
1181 -> 1182 ;
1183 [label="mse = 0.0\nsamples = 1\nvalue = 1.0"] ;
1181 -> 1183 ;
1184 [label="mse = 0.0\nsamples = 84\nvalue = 0.0"] ;
1170 -> 1184 ;
1185 [label="installment <= 65.0\nmse = 0.1\nsamples = 6\nvalue = 0.1"] ;
1169 -> 1185 ;
1186 [label="mse = 0.2\nsamples = 2\nvalue = 0.2"] ;
1185 -> 1186 ;
1187 [label="mse = 0.0\nsamples = 4\nvalue = 0.0"] ;
1185 -> 1187 ;
1188 [label="annual_inc <= 54500.0\nmse = 0.1\nsamples = 28\nvalue = 0.1"] ;
1134 -> 1188 ;
1189 [label="annual_inc <= 39500.0\nmse = 0.0\nsamples = 23\nvalue = 0.0"] ;
1188 -> 1189 ;
1190 [label="mse = 0.0\nsamples = 13\nvalue = 0.0"] ;
1189 -> 1190 ;
1191 [label="annual_inc <= 41000.0\nmse = 0.1\nsamples = 10\nvalue = 0.1"] ;
1189 -> 1191 ;
1192 [label="sub_grade <= 22.5\nmse = 0.2\nsamples = 3\nvalue = 0.2"] ;
1191 -> 1192 ;
1193 [label="mse = 0.0\nsamples = 1\nvalue = 1.0"] ;
1192 -> 1193 ;
1194 [label="mse = 0.0\nsamples = 2\nvalue = 0.0"] ;
1192 -> 1194 ;
1195 [label="mse = 0.0\nsamples = 7\nvalue = 0.0"] ;
1191 -> 1195 ;
1196 [label="annual_inc <= 63500.0\nmse = 0.2\nsamples = 5\nvalue = 0.3"] ;
1188 -> 1196 ;
1197 [label="mse = 0.0\nsamples = 1\nvalue = 1.0"] ;
1196 -> 1197 ;
1198 [label="mse = 0.0\nsamples = 4\nvalue = 0.0"] ;
1196 -> 1198 ;
1199 [label="installment <= 455.1\nmse = 0.0\nsamples = 31727\nvalue = 0.0"] ;
1133 -> 1199 ;
1200 [label="installment <= 454.7\nmse = 0.0\nsamples = 27786\nvalue = 0.0"] ;
1199 -> 1200 ;
1201 [label="installment <= 390.0\nmse = 0.0\nsamples = 27713\nvalue = 0.0"] ;
1200 -> 1201 ;
1202 [label="installment <= 385.9\nmse = 0.0\nsamples = 26015\nvalue = 0.0"] ;
1201 -> 1202 ;
1203 [label="installment <= 385.6\nmse = 0.0\nsamples = 24884\nvalue = 0.0"] ;
1202 -> 1203 ;
1204 [label="annual_inc <= 64502.0\nmse = 0.0\nsamples = 24791\nvalue = 0.0"] ;
1203 -> 1204 ;
1205 [label="annual_inc <= 64490.0\nmse = 0.0\nsamples = 17283\nvalue = 0.0"] ;
1204 -> 1205 ;
1206 [label="annual_inc <= 63962.0\nmse = 0.0\nsamples = 17276\nvalue = 0.0"] ;
1205 -> 1206 ;
1207 [label="installment <= 352.3\nmse = 0.0\nsamples = 17122\nvalue = 0.0"] ;
1206 -> 1207 ;
1208 [label="funded_amnt <= 16050.0\nmse = 0.0\nsamples = 16335\nvalue = 0.0"] ;
1207 -> 1208 ;
1209 [label="installment <= 321.6\nmse = 0.0\nsamples = 16320\nvalue = 0.0"] ;
1208 -> 1209 ;
1210 [label="installment <= 320.2\nmse = 0.0\nsamples = 13670\nvalue = 0.0"] ;
1209 -> 1210 ;
1211 [label="annual_inc <= 14534.0\nmse = 0.0\nsamples = 13417\nvalue = 0.0"] ;
1210 -> 1211 ;
1212 [label="annual_inc <= 14486.0\nmse = 0.0\nsamples = 146\nvalue = 0.0"] ;
1211 -> 1212 ;
1213 [label="mse = 0.0\nsamples = 142\nvalue = 0.0"] ;
1212 -> 1213 ;
1214 [label="funded_amnt <= 6000.0\nmse = 0.2\nsamples = 4\nvalue = 0.5"] ;
1212 -> 1214 ;
1215 [label="mse = 0.0\nsamples = 2\nvalue = 0.0"] ;
1214 -> 1215 ;
1216 [label="funded_amnt <= 7500.0\nmse = 0.2\nsamples = 2\nvalue = 0.8"] ;
1214 -> 1216 ;
1217 [label="mse = 0.0\nsamples = 1\nvalue = 1.0"] ;
1216 -> 1217 ;
1218 [label="mse = 0.0\nsamples = 1\nvalue = 0.0"] ;
1216 -> 1218 ;
1219 [label="installment <= 225.2\nmse = 0.0\nsamples = 13271\nvalue = 0.0"] ;
1211 -> 1219 ;
1220 [label="installment <= 223.1\nmse = 0.0\nsamples = 8136\nvalue = 0.0"] ;
1219 -> 1220 ;
1221 [label="installment <= 195.7\nmse = 0.0\nsamples = 7992\nvalue = 0.0"] ;
1220 -> 1221 ;
1222 [label="installment <= 192.9\nmse = 0.0\nsamples = 6832\nvalue = 0.0"] ;
1221 -> 1222 ;
1223 [label="installment <= 184.1\nmse = 0.0\nsamples = 5687\nvalue = 0.0"] ;
1222 -> 1223 ;
1224 [label="installment <= 144.8\nmse = 0.0\nsamples = 5374\nvalue = 0.0"] ;
1223 -> 1224 ;
1225 [label="installment <= 144.5\nmse = 0.0\nsamples = 2583\nvalue = 0.0"] ;
1224 -> 1225 ;
1226 [label="annual_inc <= 19008.8\nmse = 0.0\nsamples = 2577\nvalue = 0.0"] ;
1225 -> 1226 ;
1227 [label="funded_amnt <= 4100.0\nmse = 0.0\nsamples = 81\nvalue = 0.0"] ;
1226 -> 1227 ;
1228 [label="installment <= 95.9\nmse = 0.0\nsamples = 78\nvalue = 0.0"] ;
1227 -> 1228 ;
1229 [label="loan_amnt <= 2900.0\nmse = 0.1\nsamples = 8\nvalue = 0.1"] ;
1228 -> 1229 ;
1230 [label="mse = 0.0\nsamples = 6\nvalue = 0.0"] ;
1229 -> 1230 ;
1231 [label="annual_inc <= 17935.5\nmse = 0.2\nsamples = 2\nvalue = 0.5"] ;
1229 -> 1231 ;
1232 [label="mse = 0.0\nsamples = 1\nvalue = 1.0"] ;
1231 -> 1232 ;
1233 [label="mse = 0.0\nsamples = 1\nvalue = 0.0"] ;
1231 -> 1233 ;
1234 [label="mse = 0.0\nsamples = 70\nvalue = 0.0"] ;
1228 -> 1234 ;
1235 [label="annual_inc <= 18800.0\nmse = 0.2\nsamples = 3\nvalue = 0.3"] ;
1227 -> 1235 ;
1236 [label="mse = 0.0\nsamples = 2\nvalue = 0.0"] ;
1235 -> 1236 ;
1237 [label="mse = 0.0\nsamples = 1\nvalue = 1.0"] ;
1235 -> 1237 ;
1238 [label="annual_inc <= 50050.0\nmse = 0.0\nsamples = 2496\nvalue = 0.0"] ;
1226 -> 1238 ;
1239 [label="annual_inc <= 44959.5\nmse = 0.0\nsamples = 1874\nvalue = 0.0"] ;
1238 -> 1239 ;
1240 [label="annual_inc <= 24612.0\nmse = 0.0\nsamples = 1402\nvalue = 0.0"] ;
1239 -> 1240 ;
1241 [label="annual_inc <= 24554.0\nmse = 0.0\nsamples = 177\nvalue = 0.0"] ;
1240 -> 1241 ;
1242 [label="installment <= 128.4\nmse = 0.0\nsamples = 176\nvalue = 0.0"] ;
1241 -> 1242 ;
1243 [label="mse = 0.0\nsamples = 126\nvalue = 0.0"] ;
1242 -> 1243 ;
1244 [label="installment <= 128.8\nmse = 0.0\nsamples = 50\nvalue = 0.0"] ;
1242 -> 1244 ;
1245 [label="mse = 0.2\nsamples = 2\nvalue = 0.5"] ;
1244 -> 1245 ;
1246 [label="mse = 0.0\nsamples = 48\nvalue = 0.0"] ;
1244 -> 1246 ;
1247 [label="mse = 0.0\nsamples = 1\nvalue = 1.0"] ;
1241 -> 1247 ;
1248 [label="installment <= 95.8\nmse = 0.0\nsamples = 1225\nvalue = 0.0"] ;
1240 -> 1248 ;
1249 [label="loan_amnt <= 2975.0\nmse = 0.0\nsamples = 169\nvalue = 0.0"] ;
1248 -> 1249 ;
1250 [label="annual_inc <= 39500.0\nmse = 0.0\nsamples = 155\nvalue = 0.0"] ;
1249 -> 1250 ;
1251 [label="mse = 0.0\nsamples = 119\nvalue = 0.0"] ;
1250 -> 1251 ;
1252 [label="annual_inc <= 40040.0\nmse = 0.0\nsamples = 36\nvalue = 0.0"] ;
1250 -> 1252 ;
1253 [label="sub_grade <= 22.5\nmse = 0.1\nsamples = 11\nvalue = 0.1"] ;
1252 -> 1253 ;
1254 [label="mse = 0.0\nsamples = 8\nvalue = 0.0"] ;
1253 -> 1254 ;
1255 [label="funded_amnt <= 2500.0\nmse = 0.2\nsamples = 3\nvalue = 0.3"] ;
1253 -> 1255 ;
1256 [label="mse = 0.0\nsamples = 1\nvalue = 0.0"] ;
1255 -> 1256 ;
1257 [label="funded_amnt <= 2700.0\nmse = 0.2\nsamples = 2\nvalue = 0.5"] ;
1255 -> 1257 ;
1258 [label="mse = 0.0\nsamples = 1\nvalue = 1.0"] ;
1257 -> 1258 ;
1259 [label="mse = 0.0\nsamples = 1\nvalue = 0.0"] ;
1257 -> 1259 ;
1260 [label="mse = 0.0\nsamples = 25\nvalue = 0.0"] ;
1252 -> 1260 ;
1261 [label="annual_inc <= 36500.0\nmse = 0.0\nsamples = 14\nvalue = 0.0"] ;
1249 -> 1261 ;
1262 [label="annual_inc <= 34000.0\nmse = 0.1\nsamples = 8\nvalue = 0.1"] ;
1261 -> 1262 ;
1263 [label="mse = 0.0\nsamples = 5\nvalue = 0.0"] ;
1262 -> 1263 ;
1264 [label="mse = 0.2\nsamples = 3\nvalue = 0.3"] ;
1262 -> 1264 ;
1265 [label="mse = 0.0\nsamples = 6\nvalue = 0.0"] ;
1261 -> 1265 ;
1266 [label="installment <= 114.7\nmse = 0.0\nsamples = 1056\nvalue = 0.0"] ;
1248 -> 1266 ;
1267 [label="installment <= 114.2\nmse = 0.0\nsamples = 496\nvalue = 0.0"] ;
1266 -> 1267 ;
1268 [label="annual_inc <= 30247.5\nmse = 0.0\nsamples = 495\nvalue = 0.0"] ;
1267 -> 1268 ;
1269 [label="annual_inc <= 29760.0\nmse = 0.0\nsamples = 160\nvalue = 0.0"] ;
1268 -> 1269 ;
1270 [label="mse = 0.0\nsamples = 106\nvalue = 0.0"] ;
1269 -> 1270 ;
1271 [label="installment <= 97.5\nmse = 0.0\nsamples = 54\nvalue = 0.0"] ;
1269 -> 1271 ;
1272 [label="mse = 0.0\nsamples = 27\nvalue = 0.0"] ;
1271 -> 1272 ;
1273 [label="installment <= 97.5\nmse = 0.0\nsamples = 27\nvalue = 0.0"] ;
1271 -> 1273 ;
1274 [label="sub_grade <= 22.5\nmse = 0.1\nsamples = 6\nvalue = 0.1"] ;
1273 -> 1274 ;
1275 [label="mse = 0.2\nsamples = 3\nvalue = 0.3"] ;
1274 -> 1275 ;
1276 [label="mse = 0.0\nsamples = 3\nvalue = 0.0"] ;
1274 -> 1276 ;
1277 [label="mse = 0.0\nsamples = 21\nvalue = 0.0"] ;
1273 -> 1277 ;
1278 [label="mse = 0.0\nsamples = 335\nvalue = 0.0"] ;
1268 -> 1278 ;
1279 [label="mse = 0.0\nsamples = 1\nvalue = 1.0"] ;
1267 -> 1279 ;
1280 [label="mse = 0.0\nsamples = 560\nvalue = 0.0"] ;
1266 -> 1280 ;
